{"learner":{"attributes":{"scikit_learn":"{\"_estimator_type\": \"classifier\"}"},"feature_names":["capital_invertido","provincia","gastos_por_prestamos","deudas_corto_plazo","patrimonio_empresa","total_activo","numero_empleados","ventas_netas","canal_principal","cantidad_canales_venta","vende_por_catalogo","vende_con_comisionistas","vende_a_domicilio","vende_en_linea","vende_en_ferias","vende_en_maquinas_venta","vende_en_tienda","otros_medios_venta","vende_por_telefono","publicidad","uso_de_software"],"feature_types":["int","int","float","int","float","float","int","int","int","int","i","i","i","i","i","i","i","i","i","i","i"],"gradient_booster":{"model":{"cats":{"enc":[],"feature_segments":[],"sorted_idx":[]},"gbtree_model_param":{"num_parallel_tree":"1","num_trees":"203"},"iteration_indptr":[0,1,2,3,4,5,6,7,8,9,10,11,12,13,14,15,16,17,18,19,20,21,22,23,24,25,26,27,28,29,30,31,32,33,34,35,36,37,38,39,40,41,42,43,44,45,46,47,48,49,50,51,52,53,54,55,56,57,58,59,60,61,62,63,64,65,66,67,68,69,70,71,72,73,74,75,76,77,78,79,80,81,82,83,84,85,86,87,88,89,90,91,92,93,94,95,96,97,98,99,100,101,102,103,104,105,106,107,108,109,110,111,112,113,114,115,116,117,118,119,120,121,122,123,124,125,126,127,128,129,130,131,132,133,134,135,136,137,138,139,140,141,142,143,144,145,146,147,148,149,150,151,152,153,154,155,156,157,158,159,160,161,162,163,164,165,166,167,168,169,170,171,172,173,174,175,176,177,178,179,180,181,182,183,184,185,186,187,188,189,190,191,192,193,194,195,196,197,198,199,200,201,202,203],"tree_info":[0,0,0,0,0,0,0,0,0,0,0,0,0,0,0,0,0,0,0,0,0,0,0,0,0,0,0,0,0,0,0,0,0,0,0,0,0,0,0,0,0,0,0,0,0,0,0,0,0,0,0,0,0,0,0,0,0,0,0,0,0,0,0,0,0,0,0,0,0,0,0,0,0,0,0,0,0,0,0,0,0,0,0,0,0,0,0,0,0,0,0,0,0,0,0,0,0,0,0,0,0,0,0,0,0,0,0,0,0,0,0,0,0,0,0,0,0,0,0,0,0,0,0,0,0,0,0,0,0,0,0,0,0,0,0,0,0,0,0,0,0,0,0,0,0,0,0,0,0,0,0,0,0,0,0,0,0,0,0,0,0,0,0,0,0,0,0,0,0,0,0,0,0,0,0,0,0,0,0,0,0,0,0,0,0,0,0,0,0,0,0,0,0,0,0,0,0,0,0,0,0,0,0],"trees":[{"base_weights":[-0E0,-1.8208956E0,8.861985E-1,-1.8914286E0,-1.2962962E0,1.165488E0,-7.6033056E-1,-5.6194824E-1,-1.4815E-1,-1.4725275E0,-2.857143E-1,1.7621145E-1,1.626556E0,-1.5973154E0,5.56701E-1,-0E0,-1.6144578E0,2.3704E-1,-9.3333334E-1,-1.0357143E0,5.6647396E-1,1.7983587E0,2.9565218E-1,-1.6965517E0,2.963E-1,-8.5714287E-1,1.0684931E0,-2.963E-1,2.963E-1,-0E0,-1.6962025E0,-0E0,-3.7710908E-1,-1.2323233E0,3.529412E-1,1.5121951E0,4.405286E-2,1.3070866E0,1.8739727E0,1.7446809E0,-6.666667E-1,-0E0,-1.7446809E0,1.1852E-1,-1.2727273E0,1.2941177E0,-3.2922223E-1,-5.1358664E-1,-1.4815E-1,-4E-1,-4.985365E-1,3.9506668E-1,-3.2922223E-1,1.6140351E0,1.5384616E-1,-7.259259E-1,1.125E0,2.3529412E-1,1.628866E0,1.9079137E0,1.0769231E0,1.4815E-1,5.374744E-1,3.2922223E-1,-8.6567163E-1,-1.4815E-1,-1.7664233E0,-4.609111E-1,-0E0,1.4666667E0,-0E0,4.6153846E-1,-4.609111E-1,1.7623762E0,3.529412E-1,2.963E-1,-1.9753334E-1,1.04E0,-1.0877193E0,1.6862745E0,4.489796E-1,4.4445E-1,-7.2727275E-1,5.3872727E-2,1.7333333E0,5.69975E-1,8.888889E-1,3.1578946E-1,4.4445E-1,-1.1836735E0,-0E0,-1.7894737E0,-1.4815E-1,5.3872727E-2,4.8078868E-1,-2.963E-1,2.963E-1,3.4308422E-1,-2.6936364E-1,-0E0,5.437258E-1,2.963E-1,-1.9753334E-1,4.2328572E-1,-1.4815E-1,-5.1530436E-2,-4.7737223E-1,1.1852E-1,5.3992444E-1,-1.5363704E-1,4.1026154E-1,2.963E-1,-3.9506668E-1,5.23693E-1,1.4815E-1,4.1026154E-1,-6.584445E-2,3.5556E-1,-1.3675384E-1,-4.0823555E-1,1.4815E-1,3.5556E-1,-2.22225E-1,-1.4815E-1,-5.374744E-1],"categories":[],"categories_nodes":[],"categories_segments":[],"categories_sizes":[],"default_left":[0,0,0,0,0,0,0,0,0,0,0,0,0,0,0,0,0,0,0,0,0,0,0,0,0,0,0,0,0,0,0,0,0,0,0,0,0,0,0,0,0,0,0,0,0,0,0,0,0,0,0,0,0,0,0,0,0,0,0,0,0,0,0,0,0,0,0,0,0,0,0,0,0,0,0,0,0,0,0,0,0,0,0,0,0,0,0,0,0,0,0,0,0,0,0,0,0,0,0,0,0,0,0,0,0,0,0,0,0,0,0,0,0,0,0,0,0,0,0,0,0,0,0,0,0],"id":0,"left_children":[1,3,5,7,9,11,13,-1,-1,15,17,19,21,23,25,27,29,-1,31,33,35,37,39,41,-1,43,45,-1,-1,-1,47,-1,-1,49,51,53,55,57,59,61,63,-1,65,-1,67,69,-1,-1,-1,71,-1,-1,-1,73,75,77,79,81,83,85,87,-1,-1,-1,89,-1,91,-1,-1,93,95,97,-1,99,101,-1,-1,103,105,107,109,-1,111,-1,113,-1,115,117,-1,119,121,123,-1,-1,-1,-1,-1,-1,-1,-1,-1,-1,-1,-1,-1,-1,-1,-1,-1,-1,-1,-1,-1,-1,-1,-1,-1,-1,-1,-1,-1,-1,-1,-1,-1],"loss_changes":[9.907964E2,4.9854736E0,1.9080759E2,2.9919434E-1,4.387871E0,1.6095316E2,6.758052E1,0E0,0E0,4.754669E0,4.4380956E0,5.4268707E1,5.457367E1,1.1297661E1,1.8463009E1,4E0,2.7384453E0,0E0,1.1878788E0,8.079554E0,4.2669975E1,5.472107E0,4.1252914E1,2.9599457E0,0E0,4.1662335E0,1.041275E1,0E0,0E0,0E0,1.0547638E-2,0E0,0E0,8.601444E0,7.581699E0,4.0054626E0,4.8050056E1,1.0566704E1,2.8824463E0,1.0613632E-1,7.330016E0,0E0,7.0739746E-2,0E0,1.9797983E0,3.7960777E0,0E0,0E0,0E0,1.0673504E1,0E0,0E0,0E0,4.7095413E0,2.9230769E0,2.2694117E1,8.349289E0,1.1438502E1,3.3507004E0,1.0748291E0,2.6659918E0,0E0,0E0,0E0,4.611027E0,0E0,1.0507202E-1,0E0,0E0,2.7110329E0,4E0,7.256533E0,0E0,3.234047E0,3.4705882E0,0E0,0E0,4.4542856E0,1.335075E1,1.5006561E0,1.1806965E1,0E0,7.090909E0,0E0,6.278992E-2,0E0,2.7863247E0,3.8186235E0,0E0,4.6922913E0,5.85E0,1.4259338E-1,0E0,0E0,0E0,0E0,0E0,0E0,0E0,0E0,0E0,0E0,0E0,0E0,0E0,0E0,0E0,0E0,0E0,0E0,0E0,0E0,0E0,0E0,0E0,0E0,0E0,0E0,0E0,0E0,0E0,0E0,0E0,0E0,0E0],"parents":[2147483647,0,0,1,1,2,2,3,3,4,4,5,5,6,6,9,9,10,10,11,11,12,12,13,13,14,14,15,15,16,16,18,18,19,19,20,20,21,21,22,22,23,23,25,25,26,26,30,30,33,33,34,34,35,35,36,36,37,37,38,38,39,39,40,40,42,42,44,44,45,45,49,49,53,53,54,54,55,55,56,56,57,57,58,58,59,59,60,60,64,64,66,66,69,69,70,70,71,71,73,73,74,74,77,77,78,78,79,79,80,80,82,82,84,84,86,86,87,87,89,89,90,90,91,91],"right_children":[2,4,6,8,10,12,14,-1,-1,16,18,20,22,24,26,28,30,-1,32,34,36,38,40,42,-1,44,46,-1,-1,-1,48,-1,-1,50,52,54,56,58,60,62,64,-1,66,-1,68,70,-1,-1,-1,72,-1,-1,-1,74,76,78,80,82,84,86,88,-1,-1,-1,90,-1,92,-1,-1,94,96,98,-1,100,102,-1,-1,104,106,108,110,-1,112,-1,114,-1,116,118,-1,120,122,124,-1,-1,-1,-1,-1,-1,-1,-1,-1,-1,-1,-1,-1,-1,-1,-1,-1,-1,-1,-1,-1,-1,-1,-1,-1,-1,-1,-1,-1,-1,-1,-1,-1],"split_conditions":[1.112287E6,6.396801E6,1E0,6E5,6.604159E5,2.137716E6,7E0,-5.6194824E-1,-1.4815E-1,4.1235122E5,2E0,4.27212E5,1E0,4.6E1,1.260976E6,2.2343E4,3.5E3,2.3704E-1,3.4747E4,5.938012E6,1.40509E5,2.597682E6,1E0,3.15184E5,2.963E-1,8.6213E4,1E0,-2.963E-1,2.963E-1,-0E0,1.613938E6,-0E0,-3.7710908E-1,5.13E4,1E0,2.078809E6,4.06967E5,7.428998E5,1E0,3.12239E5,4.9420828E5,-0E0,1.40509E5,1.1852E-1,5.3135E5,8.12658E6,-3.2922223E-1,-5.1358664E-1,-1.4815E-1,1.634353E6,-4.985365E-1,3.9506668E-1,-3.2922223E-1,1E0,2.3763E4,1E0,4.830623E6,7.48549E5,3E0,1.504E3,6.36155E6,1.4815E-1,5.374744E-1,3.2922223E-1,3.283731E6,-1.4815E-1,3.2811432E6,-4.609111E-1,-0E0,4E0,7.943986E6,4.239144E6,-4.609111E-1,1.123199E6,1E0,2.963E-1,-1.9753334E-1,1.108804E6,4.006464E6,6.43645E5,6.760815E6,4.4445E-1,3.656937E6,5.3872727E-2,2.257749E6,5.69975E-1,4.004E5,6.338796E5,4.4445E-1,2.020671E6,1.306452E6,1.07432E5,-1.4815E-1,5.3872727E-2,4.8078868E-1,-2.963E-1,2.963E-1,3.4308422E-1,-2.6936364E-1,-0E0,5.437258E-1,2.963E-1,-1.9753334E-1,4.2328572E-1,-1.4815E-1,-5.1530436E-2,-4.7737223E-1,1.1852E-1,5.3992444E-1,-1.5363704E-1,4.1026154E-1,2.963E-1,-3.9506668E-1,5.23693E-1,1.4815E-1,4.1026154E-1,-6.584445E-2,3.5556E-1,-1.3675384E-1,-4.0823555E-1,1.4815E-1,3.5556E-1,-2.22225E-1,-1.4815E-1,-5.374744E-1],"split_indices":[5,7,15,0,4,5,8,0,0,5,8,4,13,6,4,3,0,0,3,7,0,5,16,2,0,0,14,0,0,0,2,0,0,0,12,5,0,4,14,3,2,0,0,0,0,5,0,0,0,5,0,0,0,13,0,16,7,2,6,1,7,0,0,0,4,0,2,0,0,6,7,7,0,5,16,0,0,2,7,4,7,0,7,0,4,0,0,2,0,2,2,3,0,0,0,0,0,0,0,0,0,0,0,0,0,0,0,0,0,0,0,0,0,0,0,0,0,0,0,0,0,0,0,0,0],"split_type":[0,0,0,0,0,0,0,0,0,0,0,0,0,0,0,0,0,0,0,0,0,0,0,0,0,0,0,0,0,0,0,0,0,0,0,0,0,0,0,0,0,0,0,0,0,0,0,0,0,0,0,0,0,0,0,0,0,0,0,0,0,0,0,0,0,0,0,0,0,0,0,0,0,0,0,0,0,0,0,0,0,0,0,0,0,0,0,0,0,0,0,0,0,0,0,0,0,0,0,0,0,0,0,0,0,0,0,0,0,0,0,0,0,0,0,0,0,0,0,0,0,0,0,0,0],"sum_hessian":[6.12E2,2E2,4.12E2,1.74E2,2.6E1,3.525E2,5.95E1,1.73E2,1E0,2.175E1,4.25E0,1.125E2,2.4E2,3.625E1,2.325E1,2E0,1.975E1,1.5E0,2.75E0,2.7E1,8.55E1,2.1225E2,2.775E1,3.525E1,1E0,6E0,1.725E1,1E0,1E0,1E0,1.875E1,1E0,1.75E0,2.375E1,3.25E0,2.975E1,5.575E1,3.075E1,1.815E2,1.075E1,1.7E1,1E0,3.425E1,1.5E0,4.5E0,1.6E1,1.25E0,1.775E1,1E0,9E0,1.475E1,2E0,1.25E0,2.75E1,2.25E0,3.275E1,2.3E1,7.5E0,2.325E1,1.7275E2,8.75E0,1E0,9.75E0,1.25E0,1.575E1,1E0,3.325E1,3.5E0,1E0,1.4E1,2E0,5.5E0,3.5E0,2.425E1,3.25E0,1E0,1.25E0,5.25E0,2.75E1,1.175E1,1.125E1,3E0,4.5E0,1.75E0,2.15E1,1.6925E2,3.5E0,3.75E0,5E0,1.125E1,4.5E0,3.225E1,1E0,1.75E0,1.225E1,1E0,1E0,3.75E0,1.75E0,1E0,2.325E1,2E0,1.25E0,4.25E0,1E0,1.05E1,1.7E1,1.5E0,1.025E1,5.75E0,5.5E0,1E0,3.5E0,2.05E1,1E0,2.25E0,1.25E0,1.5E0,2.25E0,1.025E1,1E0,1.5E0,3E0,1E0,3.125E1],"tree_param":{"num_deleted":"0","num_feature":"21","num_nodes":"125","size_leaf_vector":"1"}},{"base_weights":[3.2643622E-3,-1.4014195E0,6.7867404E-1,-1.4558685E0,-8.995179E-1,8.947678E-1,-5.840618E-1,-1.4992169E0,-1.0991102E0,-1.0761837E0,1.1931831E-1,1.3694376E-1,1.2562171E0,-1.2249875E0,4.0515333E-1,-1.5118971E0,-5.6268597E-1,-1.1876011E0,6.377659E-2,-3.613691E-1,-1.3885567E0,-1.0985523E0,3.806971E-1,1.389393E0,2.5211123E-1,-1.3083215E0,1.7917152E-1,-7.4360394E-1,7.8697085E-1,-4.4989163E-1,-1.4626467E-1,2.5354723E-2,-2.7036703E-1,-3.7633845E-1,-3.9518744E-1,-8.4614205E-1,1.5607208E-1,-1.1205738E-1,-4.3181142E-1,8.90008E-2,-1.3281612E0,1.1409197E0,-3.3118833E-2,1.1941981E0,4.4905713E-1,1.3758165E0,-4.74861E-1,-0E0,-1.3481506E0,9.767951E-2,-3.3888635E-1,9.6892047E-1,-2.7964768E-1,-2.6511425E-2,-1.5437546E-1,-3.4198573E-1,2.5354723E-2,-2.8592896E-1,3.2513812E-1,-1.4319512E0,-1.481475E-2,1.1962755E0,-4.801735E-2,-6.1894953E-1,8.1617624E-1,1.5183642E0,7.526811E-1,4.2816985E-1,1.2752278E-1,2.796477E-1,-6.392057E-1,-1.275228E-1,-1.3687501E0,1.1058393E0,9.523395E-3,-1.0980692E-1,-4.5123458E-1,1.427259E0,6.6157085E-1,4.6927327E-1,-8.208265E-1,1.2985687E0,2.8634733E-1,1.3445388E-1,1.5362393E0,4.0815878E-1,4.5448563E-1,-8.112856E-1,1.20660044E-1,-4.1213658E-1,-1.275228E-1,4.373742E-2,3.6290848E-1,4.446423E-1,8.173875E-2,2.7843446E-1,-1.6655736E-1,2.4492146E-1,-1.6345851E-1,3.2114166E-1,-2.7755487E-1,4.1496164E-1,1.6154322E-1,-1.0134356E-1,2.908677E-1,4.6029878E-1,1.4595307E-1,3.7037548E-1,3.911889E-2,-2.7663836E-1,7.8381084E-2],"categories":[],"categories_nodes":[],"categories_segments":[],"categories_sizes":[],"default_left":[0,0,0,0,0,0,0,0,0,0,0,0,0,0,0,0,0,0,0,0,0,0,0,0,0,0,0,0,0,0,0,0,0,0,0,0,0,0,0,0,0,0,0,0,0,0,0,0,0,0,0,0,0,0,0,0,0,0,0,0,0,0,0,0,0,0,0,0,0,0,0,0,0,0,0,0,0,0,0,0,0,0,0,0,0,0,0,0,0,0,0,0,0,0,0,0,0,0,0,0,0,0,0,0,0,0,0,0,0,0,0],"id":1,"left_children":[1,3,5,7,9,11,13,15,17,19,-1,21,23,25,27,29,31,33,-1,35,37,39,41,43,45,47,-1,49,51,-1,-1,-1,-1,-1,53,55,-1,-1,-1,57,59,61,63,65,-1,67,69,-1,71,-1,-1,73,-1,-1,-1,-1,-1,-1,-1,75,-1,77,-1,79,81,83,85,-1,-1,-1,87,-1,89,91,-1,-1,-1,93,95,97,99,101,103,-1,105,-1,107,109,-1,-1,-1,-1,-1,-1,-1,-1,-1,-1,-1,-1,-1,-1,-1,-1,-1,-1,-1,-1,-1,-1,-1],"loss_changes":[5.457263E2,3.7945862E0,1.06515274E2,9.3292236E-1,5.2406254E0,9.0787476E1,3.6866745E1,8.83728E-1,2.7942696E0,3.6674786E0,0E0,3.3051235E1,2.9698914E1,6.1368294E0,1.0807543E1,1.9561768E-1,8.8166237E-1,8.454151E-1,0E0,3.4723482E0,3.2748985E-1,5.0571175E0,2.87431E1,3.0702515E0,2.3147217E1,1.7638168E0,0E0,3.0945702E0,6.575926E0,0E0,0E0,0E0,0E0,0E0,8.397466E-2,1.5141196E0,0E0,0E0,0E0,5.1738396E0,1.9502926E0,2.5156403E0,3.0385715E1,1.0667351E1,0E0,1.029129E-1,4.6746826E0,0E0,3.1921387E-2,0E0,0E0,2.1142855E0,0E0,0E0,0E0,0E0,0E0,0E0,0E0,7.9281425E-1,0E0,2.8841896E0,0E0,8.31797E0,6.004183E0,1.8964386E-1,6.252634E0,0E0,0E0,0E0,3.255762E0,0E0,6.0878754E-2,1.4827843E0,0E0,0E0,0E0,1.3421593E0,4.345247E0,2.749453E0,7.819973E0,2.1726418E-1,6.0907803E0,0E0,5.228424E-2,0E0,6.6286263E0,2.1274805E0,0E0,0E0,0E0,0E0,0E0,0E0,0E0,0E0,0E0,0E0,0E0,0E0,0E0,0E0,0E0,0E0,0E0,0E0,0E0,0E0,0E0,0E0,0E0],"parents":[2147483647,0,0,1,1,2,2,3,3,4,4,5,5,6,6,7,7,8,8,9,9,11,11,12,12,13,13,14,14,15,15,16,16,17,17,19,19,20,20,21,21,22,22,23,23,24,24,25,25,27,27,28,28,34,34,35,35,39,39,40,40,41,41,42,42,43,43,45,45,46,46,48,48,51,51,59,59,61,61,63,63,64,64,65,65,66,66,70,70,72,72,73,73,77,77,78,78,79,79,80,80,81,81,82,82,84,84,86,86,87,87],"right_children":[2,4,6,8,10,12,14,16,18,20,-1,22,24,26,28,30,32,34,-1,36,38,40,42,44,46,48,-1,50,52,-1,-1,-1,-1,-1,54,56,-1,-1,-1,58,60,62,64,66,-1,68,70,-1,72,-1,-1,74,-1,-1,-1,-1,-1,-1,-1,76,-1,78,-1,80,82,84,86,-1,-1,-1,88,-1,90,92,-1,-1,-1,94,96,98,100,102,104,-1,106,-1,108,110,-1,-1,-1,-1,-1,-1,-1,-1,-1,-1,-1,-1,-1,-1,-1,-1,-1,-1,-1,-1,-1,-1,-1],"split_conditions":[1.112287E6,6.87694E5,1E0,6.396801E6,7.271412E6,2.137716E6,7E0,1.503E3,7E0,4E0,1.1931831E-1,3.34775E5,1E0,4.3E1,1.184191E6,1.095782E6,3.11722E5,2E0,6.377659E-2,1.5914E4,9.65E3,1E0,1.2226E5,5.700962E6,1E0,3.15184E5,1.7917152E-1,8.6213E4,1E0,-4.4989163E-1,-1.4626467E-1,2.5354723E-2,-2.7036703E-1,-3.7633845E-1,1.56556E5,6E0,1.5607208E-1,-1.1205738E-1,-4.3181142E-1,1.5719E4,3.96815E5,1.42811E6,3.75E5,4.239144E6,4.4905713E-1,1E0,4.9420828E5,-0E0,1.2178761E6,9.767951E-2,-3.3888635E-1,2.060111E6,-2.7964768E-1,-2.6511425E-2,-1.5437546E-1,-3.4198573E-1,2.5354723E-2,-2.8592896E-1,3.2513812E-1,1.2850164E6,-1.481475E-2,5.4E4,-4.801735E-2,1E0,4.803986E6,2.227986E6,1E0,4.2816985E-1,1.2752278E-1,2.796477E-1,8.484808E6,-1.275228E-1,8.885041E6,4E0,9.523395E-3,-1.0980692E-1,-4.5123458E-1,1E0,1.861752E6,1.108804E6,2.187203E6,7.15961E5,6.760815E6,1.3445388E-1,1.504E3,4.0815878E-1,2.01574E5,2.020671E6,1.20660044E-1,-4.1213658E-1,-1.275228E-1,4.373742E-2,3.6290848E-1,4.446423E-1,8.173875E-2,2.7843446E-1,-1.6655736E-1,2.4492146E-1,-1.6345851E-1,3.2114166E-1,-2.7755487E-1,4.1496164E-1,1.6154322E-1,-1.0134356E-1,2.908677E-1,4.6029878E-1,1.4595307E-1,3.7037548E-1,3.911889E-2,-2.7663836E-1,7.8381084E-2],"split_indices":[5,4,15,7,7,5,8,1,8,8,0,4,13,6,4,5,2,9,0,3,0,16,0,7,16,2,0,0,14,0,0,0,0,0,3,6,0,0,0,4,0,3,0,7,0,12,2,0,5,0,0,2,0,0,0,0,0,0,0,5,0,0,0,16,7,5,16,0,0,0,7,0,7,6,0,0,0,13,5,2,7,3,7,0,1,0,0,2,0,0,0,0,0,0,0,0,0,0,0,0,0,0,0,0,0,0,0,0,0,0,0],"split_type":[0,0,0,0,0,0,0,0,0,0,0,0,0,0,0,0,0,0,0,0,0,0,0,0,0,0,0,0,0,0,0,0,0,0,0,0,0,0,0,0,0,0,0,0,0,0,0,0,0,0,0,0,0,0,0,0,0,0,0,0,0,0,0,0,0,0,0,0,0,0,0,0,0,0,0,0,0,0,0,0,0,0,0,0,0,0,0,0,0,0,0,0,0,0,0,0,0,0,0,0,0,0,0,0,0,0,0,0,0,0,0],"sum_hessian":[5.732109E2,1.8577345E2,3.8743744E2,1.6587749E2,1.9895975E1,3.3107202E2,5.6365414E1,1.4505058E2,2.0826904E1,1.7672052E1,2.2239227E0,1.0735908E2,2.2371295E2,3.405948E1,2.2305935E1,1.4250674E2,2.5438325E0,1.9603508E1,1.2233973E0,6.030071E0,1.1641982E1,1.7112959E1,9.024612E1,1.9717735E2,2.653559E1,3.2848328E1,1.2111489E0,5.3280706E0,1.6977863E1,1.411192E2,1.387545E0,1.1562874E0,1.387545E0,1.7208483E1,2.3950233E0,3.9313774E0,2.0986931E0,1.1562874E0,1.0485695E1,2.8718634E0,1.4241096E1,3.118993E1,5.9056187E1,8.151671E1,1.15660645E2,1.0072955E1,1.6462633E1,1E0,3.184833E1,1.4947448E0,3.8333259E0,1.5761133E1,1.2167315E0,1.1972308E0,1.1977926E0,2.77509E0,1.1562874E0,1.4251409E0,1.4467224E0,1.306025E1,1.1808448E0,2.9997406E1,1.1925235E0,3.5109447E1,2.394674E1,4.559872E1,3.5917988E1,8.893202E0,1.1797535E0,1.2167315E0,1.5245902E1,1.1797535E0,3.0668575E1,1.3593805E1,2.1673272E0,1.4313276E0,1.1628922E1,1.9782461E1,1.0214945E1,5.2867155E0,2.9822731E1,1.1775027E1,1.2171712E1,1.1887077E0,4.4410015E1,1.0434358E1,2.5483631E1,1.3285824E1,1.960078E0,2.9488821E1,1.1797535E0,1.7487309E0,1.1845075E1,1.8311924E1,1.470538E0,8.512267E0,1.7026781E0,4.0570946E0,1.2296207E0,1.2317327E0,2.8591E1,9.615379E0,2.159647E0,6.660522E0,5.5111895E0,4.3207367E1,1.2026482E0,6.5206504E0,1.896298E1,1.2047742E1,1.2380826E0],"tree_param":{"num_deleted":"0","num_feature":"21","num_nodes":"111","size_leaf_vector":"1"}},{"base_weights":[5.147361E-3,-1.1879699E0,5.604963E-1,-1.2526586E0,-8.03055E-1,7.4079895E-1,-4.780595E-1,-9.9227166E-1,-1.309451E0,-1.0700465E0,-4.745383E-2,2.3133013E-1,1.1335427E0,-1.0107291E0,3.0788258E-1,-1.1460729E0,-2.0039241E-1,-3.9027572E-1,-8.293652E-2,-1.1869541E0,1.2065445E-1,6.984614E-1,-2.6093405E-1,-3.406402E-1,5.7365614E-1,1.240311E0,3.9074007E-1,-1.0883192E0,1.5195219E-1,-8.577438E-1,5.8366716E-1,-1.2589906E0,-4.1830406E-2,3.4984013E-1,-2.8678373E-1,-7.748915E-2,-3.641705E-1,-6.937596E-2,3.6784533E-1,2.0662867E-1,-8.046696E-1,1.3078235E0,3.2703137E-1,1.2729175E0,5.7637143E-1,3.732308E-1,-2.1878144E-1,-1.2213909E-2,-1.1303942E0,-3.4316146E-1,-1.979377E-2,1.0375867E0,-1.19354874E-1,-3.8551345E-1,-1.3091284E-1,2.1798006E-1,-2.2148925E-1,2.2994497E-1,-1.2581435E-1,-6.865382E-1,8.839801E-1,7.0404035E-1,-9.910361E-1,1.4707439E0,8.623226E-1,1.1291146E0,8.545117E-2,3.803461E-1,8.787218E-2,6.2210605E-2,3.2913247E-1,2.520626E-1,-8.010903E-1,-9.046378E-2,-1.1554738E0,9.8123185E-2,3.2215807E-1,5.847332E-1,-9.5513326E-1,-8.724162E-1,1.437957E-1,1.0138563E0,-3.4962833E-2,5.1330207E-3,3.0276847E-1,-1.1421554E0,-8.616473E-3,4.5545048E-1,1.0926988E-1,3.6149114E-1,-1.4037798E-1,3.8623843E-1,5.074853E-4,-2.8667003E-1,8.6369944E-1,2.670201E-1,-5.534677E-1,-1.9418071E-1,3.80508E-1,9.5362544E-2,-3.2788897E-1,-1.0058678E-1,-1.1769178E0,-1.7197083E-1,3.2460707E-1,-3.4507298E-1,-6.914334E-2,8.454941E-2,-3.250891E-1,3.6183816E-1,8.676854E-2,-1.2799206E-2,-3.7808233E-1,1.1106879E-1,-1.660727E-1,2.3304467E-1,-1.7340367E-1,-1.987963E-1,3.5514417E-1,-2.7474773E-1,6.595431E-2,-1.7961617E-1,2.0080999E-1,-3.552211E-1,-1.0925638E-1],"categories":[],"categories_nodes":[],"categories_segments":[],"categories_sizes":[],"default_left":[0,0,0,0,0,0,0,0,0,0,0,0,0,0,0,0,0,0,0,0,0,0,0,0,0,0,0,0,0,0,0,0,0,0,0,0,0,0,0,0,0,0,0,0,0,0,0,0,0,0,0,0,0,0,0,0,0,0,0,0,0,0,0,0,0,0,0,0,0,0,0,0,0,0,0,0,0,0,0,0,0,0,0,0,0,0,0,0,0,0,0,0,0,0,0,0,0,0,0,0,0,0,0,0,0,0,0,0,0,0,0,0,0,0,0,0,0,0,0,0,0,0,0,0,0],"id":2,"left_children":[1,3,5,7,9,11,13,15,17,19,21,23,25,27,29,31,33,-1,-1,35,-1,37,-1,39,41,43,45,47,-1,49,51,53,55,57,-1,-1,-1,-1,-1,59,61,63,65,67,69,-1,71,-1,73,-1,-1,75,77,-1,-1,-1,-1,-1,-1,79,81,83,85,87,89,91,93,-1,-1,95,-1,97,99,-1,101,-1,-1,103,105,107,-1,109,-1,-1,-1,111,113,-1,-1,-1,-1,-1,-1,115,117,-1,119,121,-1,-1,-1,-1,123,-1,-1,-1,-1,-1,-1,-1,-1,-1,-1,-1,-1,-1,-1,-1,-1,-1,-1,-1,-1,-1,-1],"loss_changes":[3.3615146E2,3.0063324E0,6.5178185E1,7.143097E-1,5.188507E0,5.8837357E1,2.2004478E1,3.2426033E0,4.9415588E-1,3.7894382E0,5.479562E0,2.5616518E1,1.2722656E1,4.2367706E0,7.4759912E0,2.8976173E0,2.8084621E0,0E0,0E0,3.7976837E-1,0E0,2.6644692E0,0E0,1.2670297E1,1.4345928E1,2.4085083E0,1.2132845E1,1.2720604E0,0E0,1.0053055E0,5.9133296E0,1.6247177E-1,2.3218458E0,1.6963964E0,0E0,0E0,0E0,0E0,0E0,1.475663E1,8.247196E0,1.9669342E-1,1.199651E1,1.0606384E0,2.300076E0,0E0,4.043208E0,0E0,2.4187088E-1,0E0,0E0,3.0483246E-2,5.274939E0,0E0,0E0,0E0,0E0,0E0,0E0,2.7431922E0,1.9074497E0,7.541168E-1,3.59976E0,4.1055107E-1,4.3162413E0,2.8224525E0,1.4451304E1,0E0,0E0,3.315774E0,0E0,4.1676445E0,2.587226E0,0E0,8.218765E-2,0E0,0E0,3.593986E0,3.3972454E-1,2.7978883E0,0E0,1.476057E0,0E0,0E0,0E0,3.0434914E0,1.1092876E0,0E0,0E0,0E0,0E0,0E0,0E0,1.1332162E1,9.086065E0,0E0,1.2985532E0,2.8565326E0,0E0,0E0,0E0,0E0,2.6371002E-2,0E0,0E0,0E0,0E0,0E0,0E0,0E0,0E0,0E0,0E0,0E0,0E0,0E0,0E0,0E0,0E0,0E0,0E0,0E0,0E0,0E0,0E0],"parents":[2147483647,0,0,1,1,2,2,3,3,4,4,5,5,6,6,7,7,8,8,9,9,10,10,11,11,12,12,13,13,14,14,15,15,16,16,19,19,21,21,23,23,24,24,25,25,26,26,27,27,29,29,30,30,31,31,32,32,33,33,39,39,40,40,41,41,42,42,43,43,44,44,46,46,48,48,51,51,52,52,59,59,60,60,61,61,62,62,63,63,64,64,65,65,66,66,69,69,71,71,72,72,74,74,77,77,78,78,79,79,81,81,85,85,86,86,93,93,94,94,96,96,97,97,102,102],"right_children":[2,4,6,8,10,12,14,16,18,20,22,24,26,28,30,32,34,-1,-1,36,-1,38,-1,40,42,44,46,48,-1,50,52,54,56,58,-1,-1,-1,-1,-1,60,62,64,66,68,70,-1,72,-1,74,-1,-1,76,78,-1,-1,-1,-1,-1,-1,80,82,84,86,88,90,92,94,-1,-1,96,-1,98,100,-1,102,-1,-1,104,106,108,-1,110,-1,-1,-1,112,114,-1,-1,-1,-1,-1,-1,116,118,-1,120,122,-1,-1,-1,-1,124,-1,-1,-1,-1,-1,-1,-1,-1,-1,-1,-1,-1,-1,-1,-1,-1,-1,-1,-1,-1,-1,-1],"split_conditions":[1.112287E6,6.43645E5,1E0,1E0,6E0,2.637945E6,7E0,5.634762E6,1.504E3,7.436985E6,1E0,6.87694E5,1E0,4.3E1,5.392787E6,1.4E1,3.77931E5,-3.9027572E-1,-8.293652E-2,2E0,1.2065445E-1,1.8812E4,-2.6093405E-1,1.3E5,3.485231E6,1E0,1E0,8.3294E4,1.5195219E-1,1.260976E6,6.77128E5,1E0,5.0055494E5,7.001379E6,-2.8678373E-1,-7.748915E-2,-3.641705E-1,-6.937596E-2,3.6784533E-1,3.5956178E5,2.04338E5,2E0,7E4,1.509E3,2.166085E6,3.732308E-1,4E0,-1.2213909E-2,1E0,-3.4316146E-1,-1.979377E-2,1.379833E6,1.6370912E6,-3.8551345E-1,-1.3091284E-1,2.1798006E-1,-2.2148925E-1,2.2994497E-1,-1.2581435E-1,2.006933E6,1E0,7.81782E5,4.20792E5,1.5E1,1E0,2E0,5.3135E5,3.803461E-1,8.787218E-2,6.338796E5,3.2913247E-1,1E0,7E0,-9.046378E-2,1.53388E5,9.8123185E-2,3.2215807E-1,2.637945E6,7.916E6,1E0,1.437957E-1,1.7932966E6,-3.4962833E-2,5.1330207E-3,3.0276847E-1,1E0,2E0,4.5545048E-1,1.0926988E-1,3.6149114E-1,-1.4037798E-1,3.8623843E-1,5.074853E-4,1E0,3E0,2.670201E-1,6.36155E6,4E0,3.80508E-1,9.5362544E-2,-3.2788897E-1,-1.0058678E-1,8.885041E6,-1.7197083E-1,3.2460707E-1,-3.4507298E-1,-6.914334E-2,8.454941E-2,-3.250891E-1,3.6183816E-1,8.676854E-2,-1.2799206E-2,-3.7808233E-1,1.1106879E-1,-1.660727E-1,2.3304467E-1,-1.7340367E-1,-1.987963E-1,3.5514417E-1,-2.7474773E-1,6.595431E-2,-1.7961617E-1,2.0080999E-1,-3.552211E-1,-1.0925638E-1],"split_indices":[5,4,15,16,6,5,8,7,1,7,15,4,13,6,7,6,4,0,0,6,0,3,0,0,7,14,16,3,0,4,3,10,2,7,0,0,0,0,0,4,2,8,0,1,2,0,8,0,16,0,0,5,2,0,0,0,0,0,0,5,13,3,0,6,16,9,0,0,0,2,0,20,6,0,0,0,0,5,7,16,0,5,0,0,0,16,8,0,0,0,0,0,0,16,6,0,7,9,0,0,0,0,7,0,0,0,0,0,0,0,0,0,0,0,0,0,0,0,0,0,0,0,0,0,0],"split_type":[0,0,0,0,0,0,0,0,0,0,0,0,0,0,0,0,0,0,0,0,0,0,0,0,0,0,0,0,0,0,0,0,0,0,0,0,0,0,0,0,0,0,0,0,0,0,0,0,0,0,0,0,0,0,0,0,0,0,0,0,0,0,0,0,0,0,0,0,0,0,0,0,0,0,0,0,0,0,0,0,0,0,0,0,0,0,0,0,0,0,0,0,0,0,0,0,0,0,0,0,0,0,0,0,0,0,0,0,0,0,0,0,0,0,0,0,0,0,0,0,0,0,0,0,0],"sum_hessian":[5.0531973E2,1.6013814E2,3.4518158E2,1.3516756E2,2.4970589E1,2.94364E2,5.0817566E1,2.7509817E1,1.0765774E2,1.814345E1,6.8271394E0,1.2883182E2,1.655322E2,3.0118706E1,2.0698862E1,2.2661207E1,4.8486094E0,1.06579895E2,1.0778432E0,1.6995E1,1.1484492E0,3.6875458E0,3.1395936E0,4.8238373E1,8.0593445E1,1.4414363E2,2.1388573E1,2.8931015E1,1.1876898E0,3.556562E0,1.71423E1,2.0431753E1,2.229454E0,3.1409576E0,1.7076517E0,1.0534155E0,1.5941586E1,1.5662755E0,2.1212704E0,2.2388474E1,2.5849897E1,1.9183617E1,6.140983E1,1.3652173E2,7.6218963E0,8.378324E0,1.3010249E1,1.1940877E0,2.7736927E1,2.2410865E0,1.3154755E0,1.0127434E1,7.0148654E0,1.8867483E1,1.5642699E0,1.040533E0,1.188921E0,2.0246518E0,1.1163058E0,9.650112E0,1.2738361E1,2.536689E0,2.331321E1,1.2361624E1,6.8219924E0,1.336433E1,4.8045498E1,1.3472574E2,1.7959971E0,4.4536333E0,3.168263E0,7.5072002E0,5.5030484E0,1.206856E0,2.6530071E1,1.1691561E0,8.958278E0,3.970421E0,3.0444443E0,8.549505E0,1.1006069E0,1.1266186E1,1.472176E0,1.1361291E0,1.4005599E0,2.0064259E1,3.24895E0,1.1286807E1,1.0748171E0,5.4498506E0,1.3721418E0,1.1438424E1,1.9259056E0,3.2931076E1,1.5114422E1,1.6887245E0,2.7649088E0,5.8079863E0,1.6992139E0,1.1655765E0,4.337472E0,1.1103203E0,2.5419752E1,1.1686093E0,2.801812E0,1.8841128E0,1.1603315E0,1.3459991E0,7.2035065E0,8.211282E0,3.054904E0,2.322153E0,1.7742105E1,2.106209E0,1.1427408E0,6.811717E0,2.6119358E1,2.5277774E0,1.2586644E1,1.7345976E0,1.0303111E0,4.151129E0,1.6568574E0,2.4277332E1,1.1424202E0],"tree_param":{"num_deleted":"0","num_feature":"21","num_nodes":"125","size_leaf_vector":"1"}},{"base_weights":[6.190877E-3,-1.0492965E0,4.765419E-1,-1.1056485E0,-5.905597E-1,6.32679E-1,-4.0581432E-1,-1.130166E0,-4.0674287E-1,8.9703925E-2,-7.6437145E-1,9.341665E-2,9.3085927E-1,-8.610028E-1,2.3358914E-1,-1.1843494E0,-7.989419E-1,2.0980558E-1,-8.162277E-1,2.5545505E-1,-2.2646685E-1,-2.189203E-1,-8.8389224E-1,8.1058747E-1,-1.2407312E-1,1.0459073E0,1.8180457E-1,-9.3572724E-1,1.2976156E-1,-7.602064E-1,4.6481335E-1,-3.531472E-1,-9.966937E-2,-9.4936E-1,2.2953409E-1,-6.590543E-2,-2.7652073E-1,-1.9418268E-1,5.474142E-2,-9.758354E-1,-6.351172E-3,-2.5010988E-1,9.5804936E-1,-6.420954E-1,1.5589407E-1,8.4859556E-1,1.1806892E0,1.0200809E0,-2.7316254E-1,-9.8807293E-1,-1.3195193E-2,-5.2473996E-2,-2.8387403E-1,6.0794085E-1,-2.391434E-1,-1.0335348E0,-5.1350184E-2,2.1220122E-1,-1.15027584E-1,-3.1248415E-1,-6.026127E-2,1.0233076E0,-4.1616544E-2,-7.854246E-1,4.6478894E-1,8.631072E-1,-1.5962994E-1,1.2104979E0,4.237214E-1,7.011859E-1,1.2357692E0,6.267027E-2,3.2876018E-1,3.7029237E-1,-6.6392606E-1,-7.284058E-1,-3.616547E-1,2.4560203E-1,1.0866959E0,-4.9225453E-1,-3.5391387E-1,1.1293973E0,2.7598885E-1,3.5353222E-1,-9.238841E-1,3.0495995E-1,-1.1310741E-1,-8.5249595E-2,1.0075085E0,-5.2564454E-1,6.332698E-1,3.6499837E-1,8.7683834E-2,5.973663E-1,-4.031432E-1,9.047007E-1,-1.7207867E-1,3.6929917E-1,1.0264877E-1,-2.0012051E-1,3.912446E-1,-8.602523E-1,8.9912765E-2,3.2503954E-1,-1.0865116E0,6.260622E-1,-2.867746E-1,3.5376173E-1,7.547594E-2,4.468136E-2,-2.679203E-1,3.584133E-1,1.54944E-1,2.180217E-1,-7.642481E-2,-7.459071E-2,2.310037E-1,5.1129613E-5,-2.959207E-1,3.4968424E-1,-2.8299293E-2,2.6135245E-2,-2.8508645E-1,3.15611E-1,-1.1610575E-1,-2.8087752E-2,2.5891182E-1,-3.2680312E-1,2.3931798E-1,-5.7490066E-2,3.275146E-1,2.7936038E-1,-2.342376E-1,-3.0505255E-1,4.0186733E-2,-1.7278714E-1,4.06182E-1,-6.817026E-2,-3.4337288E-1,-3.3869088E-2,2.7826566E-1,1.5213695E-1,-2.6575127E-1],"categories":[],"categories_nodes":[],"categories_segments":[],"categories_sizes":[],"default_left":[0,0,0,0,0,0,0,0,0,0,0,0,0,0,0,0,0,0,0,0,0,0,0,0,0,0,0,0,0,0,0,0,0,0,0,0,0,0,0,0,0,0,0,0,0,0,0,0,0,0,0,0,0,0,0,0,0,0,0,0,0,0,0,0,0,0,0,0,0,0,0,0,0,0,0,0,0,0,0,0,0,0,0,0,0,0,0,0,0,0,0,0,0,0,0,0,0,0,0,0,0,0,0,0,0,0,0,0,0,0,0,0,0,0,0,0,0,0,0,0,0,0,0,0,0,0,0,0,0,0,0,0,0,0,0,0,0,0,0,0,0,0,0],"id":3,"left_children":[1,3,5,7,9,11,13,15,17,19,21,23,25,27,29,31,33,-1,35,-1,-1,37,39,41,43,45,47,49,-1,51,53,-1,-1,55,57,-1,-1,-1,-1,59,-1,-1,61,63,65,67,69,71,73,75,-1,-1,-1,77,-1,79,-1,-1,-1,-1,-1,81,-1,83,85,87,89,91,93,95,97,-1,-1,99,101,103,-1,105,107,109,-1,111,113,115,117,-1,-1,-1,119,121,123,-1,-1,125,127,129,-1,-1,-1,131,-1,133,-1,135,137,139,141,-1,-1,-1,-1,-1,-1,-1,-1,-1,-1,-1,-1,-1,-1,-1,-1,-1,-1,-1,-1,-1,-1,-1,-1,-1,-1,-1,-1,-1,-1,-1,-1,-1,-1,-1,-1],"loss_changes":[2.1675719E2,2.8263092E0,4.1865036E1,1.574646E0,2.0633802E0,4.1237778E1,1.3594387E1,1.1021423E0,3.1279013E0,3.5143352E0,6.893892E-1,1.4546982E1,1.4061844E1,3.0396347E0,4.9314413E0,2.103424E-1,3.175622E0,0E0,1.0856271E-1,0E0,0E0,7.840973E-1,8.3385944E-1,6.0998335E0,1.0532649E1,2.8050232E0,9.138052E0,1.1660652E0,0E0,3.0795932E-1,3.5459468E0,0E0,0E0,9.2317295E-1,1.2534484E0,0E0,0E0,0E0,0E0,3.7696457E-1,0E0,0E0,1.6045933E0,4.3999376E0,1.0737356E1,8.967155E0,1.3123322E0,3.7180233E-1,4.230138E0,5.8719444E-1,0E0,0E0,0E0,2.4489493E0,0E0,7.203598E-1,0E0,0E0,0E0,0E0,0E0,1.2229404E0,0E0,3.9361753E0,2.0862174E0,2.751114E0,1.0110334E1,2.752304E-1,4.533619E0,3.3460984E0,2.5341034E-1,0E0,0E0,3.8570485E0,2.201448E0,5.646471E0,0E0,2.2462168E0,2.7153492E-1,1.4988834E0,0E0,1.7648697E-1,1.105457E0,1.0226321E0,1.4305687E0,0E0,0E0,0E0,2.6612234E0,6.4076505E0,5.3292756E0,0E0,0E0,4.8879747E0,5.793631E0,2.357596E0,0E0,0E0,0E0,4.1266747E0,0E0,1.6154628E0,0E0,4.9115024E0,3.9657784E-1,1.5594845E0,2.8716946E0,0E0,0E0,0E0,0E0,0E0,0E0,0E0,0E0,0E0,0E0,0E0,0E0,0E0,0E0,0E0,0E0,0E0,0E0,0E0,0E0,0E0,0E0,0E0,0E0,0E0,0E0,0E0,0E0,0E0,0E0,0E0,0E0,0E0,0E0,0E0,0E0],"parents":[2147483647,0,0,1,1,2,2,3,3,4,4,5,5,6,6,7,7,8,8,9,9,10,10,11,11,12,12,13,13,14,14,15,15,16,16,18,18,21,21,22,22,23,23,24,24,25,25,26,26,27,27,29,29,30,30,33,33,34,34,39,39,42,42,43,43,44,44,45,45,46,46,47,47,48,48,49,49,53,53,55,55,61,61,63,63,64,64,65,65,66,66,67,67,68,68,69,69,70,70,73,73,74,74,75,75,77,77,78,78,79,79,81,81,82,82,83,83,84,84,88,88,89,89,90,90,93,93,94,94,95,95,99,99,101,101,103,103,104,104,105,105,106,106],"right_children":[2,4,6,8,10,12,14,16,18,20,22,24,26,28,30,32,34,-1,36,-1,-1,38,40,42,44,46,48,50,-1,52,54,-1,-1,56,58,-1,-1,-1,-1,60,-1,-1,62,64,66,68,70,72,74,76,-1,-1,-1,78,-1,80,-1,-1,-1,-1,-1,82,-1,84,86,88,90,92,94,96,98,-1,-1,100,102,104,-1,106,108,110,-1,112,114,116,118,-1,-1,-1,120,122,124,-1,-1,126,128,130,-1,-1,-1,132,-1,134,-1,136,138,140,142,-1,-1,-1,-1,-1,-1,-1,-1,-1,-1,-1,-1,-1,-1,-1,-1,-1,-1,-1,-1,-1,-1,-1,-1,-1,-1,-1,-1,-1,-1,-1,-1,-1,-1,-1,-1],"split_conditions":[1.112287E6,9.8256956E5,1E0,1E0,1.0016455E6,2.145033E6,7E0,5.700962E6,7.2112E4,3.39977E5,1E0,1E0,1E0,4.3E1,1.112968E6,1.504E3,7E0,2.0980558E-1,9.4586E4,2.5545505E-1,-2.2646685E-1,3.7501E4,4.25435E5,1.5719E4,5.76522E5,5.700962E6,1E0,3E0,1.2976156E-1,7E0,1E0,-3.531472E-1,-9.966937E-2,2E0,3.77931E5,-6.590543E-2,-2.7652073E-1,-1.9418268E-1,5.474142E-2,6.35443E5,-6.351172E-3,-2.5010988E-1,1.003169E6,7.047429E6,1.50421E5,4.239144E6,7.428998E5,6E0,1.131802E6,2E0,-1.3195193E-2,-5.2473996E-2,-2.8387403E-1,7.943986E6,-2.391434E-1,1E0,-5.1350184E-2,2.1220122E-1,-1.15027584E-1,-3.1248415E-1,-6.026127E-2,1.926581E6,-4.1616544E-2,1.0924E4,1.179479E6,1.1699526E6,5.12498E5,1.504E3,4.94953E6,1E0,1.509E3,6.267027E-2,3.2876018E-1,5.565177E6,2.325585E6,1.023827E6,-3.616547E-1,1E0,2.056225E6,9.1032106E5,-3.5391387E-1,1.4E1,2.4489E5,3E3,1.4708022E5,3.0495995E-1,-1.1310741E-1,-8.5249595E-2,2.078809E6,4.006464E6,1.58588E6,3.6499837E-1,8.7683834E-2,2.597682E6,2E0,2.438295E6,-1.7207867E-1,3.6929917E-1,1.0264877E-1,3.923078E6,3.912446E-1,8.484808E6,8.9912765E-2,2.11829E6,8.09016E5,7.77216E5,8.09016E5,3.5376173E-1,7.547594E-2,4.468136E-2,-2.679203E-1,3.584133E-1,1.54944E-1,2.180217E-1,-7.642481E-2,-7.459071E-2,2.310037E-1,5.1129613E-5,-2.959207E-1,3.4968424E-1,-2.8299293E-2,2.6135245E-2,-2.8508645E-1,3.15611E-1,-1.1610575E-1,-2.8087752E-2,2.5891182E-1,-3.2680312E-1,2.3931798E-1,-5.7490066E-2,3.275146E-1,2.7936038E-1,-2.342376E-1,-3.0505255E-1,4.0186733E-2,-1.7278714E-1,4.06182E-1,-6.817026E-2,-3.4337288E-1,-3.3869088E-2,2.7826566E-1,1.5213695E-1,-2.6575127E-1],"split_indices":[5,5,15,10,5,5,8,7,3,3,16,16,13,6,4,1,8,0,0,0,0,0,0,4,4,7,16,9,0,6,14,0,0,9,4,0,0,0,0,3,0,0,0,7,0,7,4,6,2,8,0,0,0,7,0,19,0,0,0,0,0,5,0,0,3,5,0,1,3,14,1,0,0,7,2,3,0,19,3,2,0,6,0,0,2,0,0,0,5,7,4,0,0,5,8,5,0,0,0,7,0,7,0,5,2,2,2,0,0,0,0,0,0,0,0,0,0,0,0,0,0,0,0,0,0,0,0,0,0,0,0,0,0,0,0,0,0,0,0,0,0,0,0],"split_type":[0,0,0,0,0,0,0,0,0,0,0,0,0,0,0,0,0,0,0,0,0,0,0,0,0,0,0,0,0,0,0,0,0,0,0,0,0,0,0,0,0,0,0,0,0,0,0,0,0,0,0,0,0,0,0,0,0,0,0,0,0,0,0,0,0,0,0,0,0,0,0,0,0,0,0,0,0,0,0,0,0,0,0,0,0,0,0,0,0,0,0,0,0,0,0,0,0,0,0,0,0,0,0,0,0,0,0,0,0,0,0,0,0,0,0,0,0,0,0,0,0,0,0,0,0,0,0,0,0,0,0,0,0,0,0,0,0,0,0,0,0,0,0],"sum_hessian":[4.3460748E2,1.3359155E2,3.0101593E2,1.1772037E2,1.5871192E1,2.559987E2,4.501721E1,1.13134575E2,4.5857925E0,3.3284032E0,1.25427885E1,9.161865E1,1.6438005E2,2.6094252E1,1.8922955E1,9.501573E1,1.8118843E1,1.036016E0,3.5497766E0,1.7426696E0,1.5857338E0,2.7633717E0,9.779417E0,2.0684538E1,7.093412E1,1.421507E2,2.222936E1,2.4939196E1,1.155057E0,3.1399188E0,1.5783035E1,9.37799E1,1.2358317E0,1.5874124E1,2.2447197E0,1.061924E0,2.4878526E0,1.0282043E0,1.7351675E0,8.718512E0,1.0609057E0,1.3059511E0,1.9378586E1,2.4432775E1,4.6501343E1,6.0653755E1,8.149694E1,7.383385E0,1.4845976E1,2.3452944E1,1.4862517E0,1.2756101E0,1.8643088E0,1.4655848E1,1.1271874E0,1.4021503E1,1.8526198E0,1.1664851E0,1.0782347E0,7.5801077E0,1.1384038E0,1.8356543E1,1.0220448E0,2.1888834E1,2.543942E0,1.3810692E1,3.269065E1,3.1755638E1,2.8898115E1,9.811591E0,7.168535E1,1.0707494E0,6.312636E0,5.629117E0,9.216859E0,1.3031499E1,1.0421445E1,9.203394E0,5.4524536E0,4.143266E0,9.878238E0,1.5626879E1,2.729663E0,2.2041702E0,1.9684664E1,1.3967774E0,1.1471646E0,1.4290744E0,1.2381618E1,2.2596722E1,1.0093929E1,3.069202E1,1.0636177E0,2.4112043E1,4.7860723E0,8.721314E0,1.0902759E0,7.044426E1,1.241087E0,4.0106945E0,1.6184226E0,7.753956E0,1.4629027E0,3.3294733E0,9.702025E0,5.264891E0,3.938503E0,4.4445167E0,1.0079368E0,1.8654183E0,2.2778478E0,1.292272E1,2.7041593E0,1.2634284E0,1.4662346E0,1.0796746E0,1.1244957E0,1.5494967E0,1.8135166E1,1.0645305E1,1.7363123E0,9.722385E0,1.2874336E1,7.0743117E0,3.0196178E0,7.0693307E0,1.7042713E1,3.0895545E0,1.6965177E0,1.3518269E0,7.369488E0,1.1628159E0,2.8478785E0,6.598497E0,1.1554587E0,2.0187583E0,1.3107148E0,1.0814438E0,8.620582E0,1.7533574E0,3.5115337E0,1.7723529E0,2.16615E0],"tree_param":{"num_deleted":"0","num_feature":"21","num_nodes":"143","size_leaf_vector":"1"}},{"base_weights":[6.836411E-3,-9.436295E-1,4.112965E-1,-1.0239578E0,-5.27368E-1,5.62035E-1,-3.145142E-1,-1.0750616E0,-6.6071504E-1,-7.8736883E-1,8.0736466E-2,9.081303E-2,8.8258016E-1,7.9399097E-1,-6.2957203E-1,-1.0950708E0,-2.8868598E-1,9.778903E-2,-8.1459314E-1,-9.2409575E-1,1.2837727E-1,2.9104736E-1,-4.6547937E-1,5.016431E-1,-1.5614085E-1,9.388246E-1,2.4113107E-1,-1.15634724E-1,1.0453471E0,-7.063986E-1,2.0657304E-1,-3.2983133E-1,-3.0109304E-1,-2.0599869E-1,9.6131906E-2,-4.020386E-1,-3.1914848E-1,-7.2750024E-2,-9.678559E-1,1.0982244E-2,-2.7659276E-1,-6.4579916E-1,8.396983E-1,-5.245196E-1,3.785618E-1,7.3413575E-1,1.0884815E0,2.6489642E-1,-1.89294E-1,8.062005E-2,3.4157583E-1,-9.1982764E-1,-5.1663473E-2,-2.0329757E-1,7.365941E-2,3.685238E-2,-2.4795718E-1,-1.0108289E0,-8.592735E-2,-1.9815105E-1,1.9596303E-1,7.298412E-2,-8.1771004E-1,4.3292376E-1,1.1218917E0,5.3982234E-1,-6.6266435E-1,9.65569E-1,7.666618E-2,1.1186355E0,3.404146E-1,5.9911233E-1,1.1497625E0,-5.87373E-1,1.806622E-1,-1.0754361E-3,-9.618462E-1,6.2361133E-1,-6.5139526E-1,-2.068559E-1,1.6415587E-1,-3.1944656E-1,-9.759613E-2,-2.9467055E-1,3.3728123E-2,7.710074E-1,-2.3350261E-1,1.9375306E-2,3.7904555E-1,9.066379E-1,-1.0470624E-1,-7.2300804E-1,1.1952065E-1,3.8374625E-2,3.253409E-1,-5.298855E-1,4.3333375E-1,3.3886063E-1,7.5703956E-2,1.0066986E0,7.9987705E-2,8.0341065E-1,-1.4200442E-1,3.444148E-1,8.8238984E-2,1.1857456E-1,-8.9641184E-1,-3.670828E-1,-7.575898E-1,-2.1037656E-1,4.127113E-1,4.1247476E-3,-3.018983E-1,2.6792657E-1,-1.1321039E-2,1.8254578E-1,-2.0954561E-1,3.3185032E-1,6.0874533E-2,-7.613848E-2,-2.7340475E-1,-2.6569295E-1,5.0621293E-2,3.1569907E-1,-5.287662E-2,5.694603E-2,3.2996437E-1,-2.6364872E-1,1.2417251E-1,-4.749064E-2,3.006193E-1,-3.2634935E-1,-8.372151E-2,2.8823987E-2,-2.862257E-1],"categories":[],"categories_nodes":[],"categories_segments":[],"categories_sizes":[],"default_left":[0,0,0,0,0,0,0,0,0,0,0,0,0,0,0,0,0,0,0,0,0,0,0,0,0,0,0,0,0,0,0,0,0,0,0,0,0,0,0,0,0,0,0,0,0,0,0,0,0,0,0,0,0,0,0,0,0,0,0,0,0,0,0,0,0,0,0,0,0,0,0,0,0,0,0,0,0,0,0,0,0,0,0,0,0,0,0,0,0,0,0,0,0,0,0,0,0,0,0,0,0,0,0,0,0,0,0,0,0,0,0,0,0,0,0,0,0,0,0,0,0,0,0,0,0,0,0,0,0,0,0,0,0,0,0],"id":4,"left_children":[1,3,5,7,9,11,13,15,17,19,21,23,25,27,29,31,33,-1,35,37,-1,-1,39,41,43,45,47,-1,49,51,-1,-1,53,-1,-1,55,-1,-1,57,59,-1,61,63,65,67,69,71,-1,73,-1,-1,75,77,-1,-1,79,-1,81,-1,-1,-1,-1,83,85,87,89,91,93,95,97,99,101,103,105,-1,-1,107,109,111,-1,-1,-1,-1,-1,-1,113,115,-1,-1,117,-1,119,-1,-1,-1,121,123,-1,-1,125,127,129,-1,-1,-1,-1,131,-1,133,-1,-1,-1,-1,-1,-1,-1,-1,-1,-1,-1,-1,-1,-1,-1,-1,-1,-1,-1,-1,-1,-1,-1,-1,-1,-1],"loss_changes":[1.4339163E2,3.183197E0,2.8802765E1,1.0025787E0,3.237348E0,3.2698685E1,1.6437887E1,9.316101E-1,2.399435E0,2.7626696E0,3.8644211E0,9.104925E0,4.429077E0,3.5460534E0,4.171487E0,7.707672E-1,1.0545491E0,0E0,9.082813E-1,1.4981079E-1,0E0,0E0,1.1223185E0,1.3591135E1,1.1294186E1,2.8245316E0,3.4706426E0,0E0,4.3152428E-1,4.7895203E0,0E0,0E0,8.2370853E-1,0E0,0E0,1.2544011E0,0E0,0E0,5.4008484E-2,1.971743E0,0E0,1.462182E0,2.546936E0,5.323304E0,4.1009483E0,7.647434E0,1.2982178E0,0E0,2.8726797E0,0E0,0E0,9.991932E-1,4.2815776E0,0E0,0E0,1.9637268E0,0E0,1.4032745E-1,0E0,0E0,0E0,0E0,1.2864418E0,2.984968E0,2.4052658E0,1.772119E0,2.2434454E0,7.3421574E-1,3.830304E0,2.7742767E-1,4.715358E0,2.4695857E0,2.7540588E-1,2.1245785E0,0E0,0E0,4.7044373E-1,6.1308703E0,1.3729286E0,0E0,0E0,0E0,0E0,0E0,0E0,9.500871E-1,2.430891E0,0E0,0E0,2.8172302E-1,0E0,2.4690332E0,0E0,0E0,0E0,1.8529706E0,4.4562054E0,0E0,0E0,4.548645E-1,7.2649007E0,1.8574553E0,0E0,0E0,0E0,0E0,2.8220654E-1,0E0,3.1061144E0,0E0,0E0,0E0,0E0,0E0,0E0,0E0,0E0,0E0,0E0,0E0,0E0,0E0,0E0,0E0,0E0,0E0,0E0,0E0,0E0,0E0,0E0,0E0,0E0,0E0,0E0],"parents":[2147483647,0,0,1,1,2,2,3,3,4,4,5,5,6,6,7,7,8,8,9,9,10,10,11,11,12,12,13,13,14,14,15,15,16,16,18,18,19,19,22,22,23,23,24,24,25,25,26,26,28,28,29,29,32,32,35,35,38,38,39,39,41,41,42,42,43,43,44,44,45,45,46,46,48,48,51,51,52,52,55,55,57,57,62,62,63,63,64,64,65,65,66,66,67,67,68,68,69,69,70,70,71,71,72,72,73,73,76,76,77,77,78,78,85,85,86,86,89,89,91,91,95,95,96,96,99,99,100,100,101,101,106,106,108,108],"right_children":[2,4,6,8,10,12,14,16,18,20,22,24,26,28,30,32,34,-1,36,38,-1,-1,40,42,44,46,48,-1,50,52,-1,-1,54,-1,-1,56,-1,-1,58,60,-1,62,64,66,68,70,72,-1,74,-1,-1,76,78,-1,-1,80,-1,82,-1,-1,-1,-1,84,86,88,90,92,94,96,98,100,102,104,106,-1,-1,108,110,112,-1,-1,-1,-1,-1,-1,114,116,-1,-1,118,-1,120,-1,-1,-1,122,124,-1,-1,126,128,130,-1,-1,-1,-1,132,-1,134,-1,-1,-1,-1,-1,-1,-1,-1,-1,-1,-1,-1,-1,-1,-1,-1,-1,-1,-1,-1,-1,-1,-1,-1,-1,-1],"split_conditions":[1.112287E6,6.43645E5,1E0,6.396801E6,6E0,2.145033E6,1E0,1.04830706E6,4.1235122E5,7.436985E6,3.923078E6,1.50421E5,1E0,1.42207E5,4.6E1,1.503E3,5.91344E5,9.778903E-2,1.04614E5,2.0654E4,1.2837727E-1,2.9104736E-1,1.0240971E6,3.34775E5,3.96815E5,5.700962E6,1E0,-1.15634724E-1,5E0,3E0,2.0657304E-1,-3.2983133E-1,2.454612E6,-2.0599869E-1,9.6131906E-2,7.826087E6,-3.1914848E-1,-7.2750024E-2,5.39745E5,5.654246E6,-2.7659276E-1,1.2850164E6,5.08774E5,2.565386E6,4.032574E6,4.239144E6,7.428998E5,2.6489642E-1,7.943986E6,8.062005E-2,3.4157583E-1,3.92721E5,1.366406E6,-2.0329757E-1,7.365941E-2,6.74137E5,-2.4795718E-1,1E0,-8.592735E-2,-1.9815105E-1,1.9596303E-1,7.298412E-2,6.55004E5,1.803481E6,1.1699526E6,1.1E1,7.648661E6,2.224057E6,1.0255726E6,1.504E3,2.07109E5,1E0,1.509E3,8.09016E5,1.806622E-1,-1.0754361E-3,1.184191E6,3.148599E6,2.759052E6,-2.068559E-1,1.6415587E-1,-3.1944656E-1,-9.759613E-2,-2.9467055E-1,3.3728123E-2,1.02E5,3.45107E5,1.9375306E-2,3.7904555E-1,2.60608E5,-1.0470624E-1,4.315955E6,1.1952065E-1,3.8374625E-2,3.253409E-1,7.736E5,1.500957E6,3.3886063E-1,7.5703956E-2,4.420582E6,4.45494E5,2.438295E6,-1.4200442E-1,3.444148E-1,8.8238984E-2,1.1857456E-1,7.294346E6,-3.670828E-1,1.023827E6,-2.1037656E-1,4.127113E-1,4.1247476E-3,-3.018983E-1,2.6792657E-1,-1.1321039E-2,1.8254578E-1,-2.0954561E-1,3.3185032E-1,6.0874533E-2,-7.613848E-2,-2.7340475E-1,-2.6569295E-1,5.0621293E-2,3.1569907E-1,-5.287662E-2,5.694603E-2,3.2996437E-1,-2.6364872E-1,1.2417251E-1,-4.749064E-2,3.006193E-1,-3.2634935E-1,-8.372151E-2,2.8823987E-2,-2.862257E-1],"split_indices":[5,4,13,7,6,5,16,5,5,7,7,0,15,3,6,1,3,0,0,0,0,0,5,4,0,7,19,0,6,9,0,0,7,0,0,7,0,0,0,7,0,5,2,7,7,7,4,0,7,0,0,2,2,0,0,5,0,12,0,0,0,0,2,5,5,6,7,7,4,1,0,14,1,2,0,0,4,5,3,0,0,0,0,0,0,0,2,0,0,0,0,7,0,0,0,3,4,0,0,7,0,5,0,0,0,0,7,0,3,0,0,0,0,0,0,0,0,0,0,0,0,0,0,0,0,0,0,0,0,0,0,0,0,0,0],"split_type":[0,0,0,0,0,0,0,0,0,0,0,0,0,0,0,0,0,0,0,0,0,0,0,0,0,0,0,0,0,0,0,0,0,0,0,0,0,0,0,0,0,0,0,0,0,0,0,0,0,0,0,0,0,0,0,0,0,0,0,0,0,0,0,0,0,0,0,0,0,0,0,0,0,0,0,0,0,0,0,0,0,0,0,0,0,0,0,0,0,0,0,0,0,0,0,0,0,0,0,0,0,0,0,0,0,0,0,0,0,0,0,0,0,0,0,0,0,0,0,0,0,0,0,0,0,0,0,0,0,0,0,0,0,0,0],"sum_hessian":[3.709928E2,1.10347435E2,2.6064536E2,9.12739E1,1.907353E1,2.160095E2,4.463585E1,7.829864E1,1.2975263E1,1.3154435E1,5.9190955E0,8.79705E1,1.28039E2,9.542213E0,3.5093636E1,7.597295E1,2.3256886E0,1.5904331E0,1.13848295E1,1.2047861E1,1.1065749E0,1.9319931E0,3.9871023E0,3.2639847E1,5.5330654E1,1.1729093E2,1.0748071E1,1.5739574E0,7.9682555E0,3.3614716E1,1.4789206E0,7.388695E1,2.0860047E0,1.3178993E0,1.0077893E0,5.4117E0,5.9731293E0,1.1303794E0,1.0917481E1,2.4596083E0,1.527494E0,7.2206964E0,2.541915E1,3.277183E1,2.2558825E1,5.2031647E1,6.525928E1,3.8425353E0,6.9055357E0,1.403167E0,6.5650887E0,2.5045544E1,8.569174E0,1.0807822E0,1.0052227E0,3.1486828E0,2.2630172E0,9.804689E0,1.1127918E0,1.1888602E0,1.2707483E0,1.0966899E0,6.1240063E0,1.14493475E1,1.3969803E1,3.4308727E0,2.9340958E1,6.9149704E0,1.5643853E1,2.539259E1,2.6639057E1,8.461891E0,5.679739E1,4.785997E0,2.1195388E0,1.145905E0,2.3899637E1,4.012E0,4.5571737E0,1.1559575E0,1.9927254E0,8.393741E0,1.4109489E0,5.090357E0,1.0336497E0,7.491778E0,3.9575694E0,1.9946132E0,1.1975189E1,2.421415E0,1.0094576E0,2.8073622E1,1.2673357E0,1.2161016E0,5.6988688E0,5.6128836E0,1.003097E1,2.4361853E1,1.0307366E0,6.680892E0,1.9958166E1,7.3284817E0,1.1334094E0,5.5609093E1,1.1882967E0,1.0704287E0,3.715568E0,7.9929934E0,1.5906645E1,1.4958323E0,2.5161676E0,1.9638891E0,2.5932848E0,6.3318415E0,1.1599365E0,1.3091148E0,2.6484547E0,1.3986145E0,1.0228006E0,9.107698E0,1.8965923E1,3.5006835E0,2.1122E0,4.5687294E0,5.4622407E0,1.099829E0,5.581063E0,4.749774E0,1.5208392E1,1.3605238E0,5.967958E0,2.189952E0,1.5256163E0,3.2223248E0,1.26843195E1],"tree_param":{"num_deleted":"0","num_feature":"21","num_nodes":"135","size_leaf_vector":"1"}},{"base_weights":[8.205034E-3,-8.479205E-1,3.6546615E-1,-9.2752385E-1,-3.6905232E-1,6.371176E-2,6.516563E-1,-1.0073442E0,-5.623578E-1,-7.86403E-1,5.9774805E-2,5.435804E-1,-1.5990359E-1,8.634012E-1,-3.2985013E-2,-1.0416161E0,-3.9362037E-1,-2.9850432E-1,-2.2225675E-1,3.8524136E-2,-3.3336362E-1,5.6085104E-1,-2.0459482E-1,-4.9388546E-1,7.937873E-1,-3.738326E-1,6.0776234E-1,9.1920257E-1,9.965965E-2,3.209527E-1,-3.3302122E-1,-3.125652E-1,-1.0305792E-1,1.376732E-1,-2.478205E-1,5.086468E-1,-6.664956E-1,-1.850943E-1,1.9497544E-1,3.7385136E-1,-4.914274E-2,-2.2804362E-1,6.585224E-2,8.6195135E-1,-1.4975378E-1,-5.5943638E-2,-6.2202746E-1,-4.0089116E-1,7.989368E-1,9.474033E-1,1.0647542E-1,6.100703E-1,-4.6687043E-1,6.1474156E-1,-5.551889E-1,-8.943819E-2,9.7408426E-1,-1.0967633E-1,-2.8726467E-1,1.7837231E-1,-1.646077E-1,9.2432654E-1,9.073481E-3,-5.354982E-1,1.903887E-1,-9.9444634E-1,-3.8612872E-1,-2.6179406E-1,1.0233186E-1,-8.464001E-2,9.75148E-1,1.029916E0,6.2924093E-1,2.5268483E-1,-2.5005546E-1,9.2403835E-4,2.5031754E-1,-2.4526265E-1,6.853308E-2,-5.3595647E-2,3.4956846E-1,-1.1711656E-1,-9.226912E-1,4.371093E-1,-1.1287911E-2,6.400985E-2,-9.733281E-2,9.808342E-1,-2.6125433E-2,3.1458995E-1,-9.6896917E-1,4.0353048E-1,-6.564215E-1,-4.654824E-2,-3.3156273E-1,-1.11422606E-1,-3.2645434E-1,2.7045155E-2,1.045002E0,5.1614426E-2,1.0415703E0,-6.879285E-2,9.2049265E-1,-6.440016E-1,5.814322E-1,-2.894466E-1,-3.2263657E-1,3.1153342E-1,6.354976E-2,2.339326E-1,-3.6826476E-2,-3.3725467E-1,-1.1123921E-2,2.2842012E-1,3.6948742E-3,-2.608782E-1,4.591676E-3,2.1022466E-1,-1.1008457E-1,3.4523806E-1,-1.9835837E-2,2.0488435E-1,3.2031992E-1,2.1493773E-1,-1.4970773E-1,7.669547E-2,2.888572E-1,8.972044E-2,-2.6594484E-1,3.473926E-1,-1.9819091E-1,1.13104954E-1,-2.1566558E-1],"categories":[],"categories_nodes":[],"categories_segments":[],"categories_sizes":[],"default_left":[0,0,0,0,0,0,0,0,0,0,0,0,0,0,0,0,0,0,0,0,0,0,0,0,0,0,0,0,0,0,0,0,0,0,0,0,0,0,0,0,0,0,0,0,0,0,0,0,0,0,0,0,0,0,0,0,0,0,0,0,0,0,0,0,0,0,0,0,0,0,0,0,0,0,0,0,0,0,0,0,0,0,0,0,0,0,0,0,0,0,0,0,0,0,0,0,0,0,0,0,0,0,0,0,0,0,0,0,0,0,0,0,0,0,0,0,0,0,0,0,0,0,0,0,0,0,0,0,0,0,0,0,0],"id":5,"left_children":[1,3,5,7,9,11,13,15,17,19,21,23,25,27,29,31,33,-1,35,37,-1,39,-1,41,43,45,47,49,51,-1,53,-1,-1,-1,-1,55,57,-1,-1,-1,59,-1,-1,61,-1,63,65,67,69,71,73,75,77,79,81,-1,83,85,-1,-1,-1,87,-1,89,91,93,95,-1,-1,-1,97,99,101,-1,-1,-1,-1,-1,-1,-1,-1,103,105,-1,-1,-1,-1,107,-1,109,111,113,115,-1,-1,117,-1,-1,119,-1,121,123,125,127,129,131,-1,-1,-1,-1,-1,-1,-1,-1,-1,-1,-1,-1,-1,-1,-1,-1,-1,-1,-1,-1,-1,-1,-1,-1,-1,-1,-1],"loss_changes":[9.727179E1,3.2272263E0,1.9335154E1,1.7546082E0,2.7330337E0,1.1925465E1,1.670691E1,9.3790436E-1,2.281003E0,2.1880817E0,3.5195048E0,9.554257E0,1.271313E1,3.6548462E0,9.784688E0,1.8666077E-1,2.2874355E0,0E0,3.801341E0,1.7263408E0,0E0,2.433629E0,0E0,1.6471466E0,2.9880219E0,4.705286E0,3.5888495E0,1.7739639E0,2.3399425E0,0E0,5.1722574E0,0E0,0E0,0E0,0E0,2.028636E0,1.0857058E0,0E0,0E0,0E0,1.6297934E0,0E0,0E0,1.4108715E0,0E0,3.3433967E0,2.5712767E0,1.5177732E0,3.0657988E0,1.4240646E0,3.464609E0,5.918133E-1,1.1828661E0,2.3853989E0,2.9687848E0,0E0,1.6577959E0,3.287749E-1,0E0,0E0,0E0,1.5616188E0,0E0,3.8327518E0,3.6699579E0,1.1186018E0,4.2471995E0,0E0,0E0,0E0,6.9319725E-1,4.2795563E-1,3.8905296E0,0E0,0E0,0E0,0E0,0E0,0E0,0E0,0E0,4.0049863E0,7.632961E-1,0E0,0E0,0E0,0E0,1.099783E0,0E0,9.293908E-1,9.9549913E-1,2.244709E0,6.42009E-1,0E0,0E0,3.9310248E0,0E0,0E0,1.6467638E0,0E0,8.328247E-2,2.6102035E0,2.2815514E-1,1.7355528E0,4.3065352E0,1.3054926E0,0E0,0E0,0E0,0E0,0E0,0E0,0E0,0E0,0E0,0E0,0E0,0E0,0E0,0E0,0E0,0E0,0E0,0E0,0E0,0E0,0E0,0E0,0E0,0E0,0E0,0E0,0E0],"parents":[2147483647,0,0,1,1,2,2,3,3,4,4,5,5,6,6,7,7,8,8,9,9,10,10,11,11,12,12,13,13,14,14,15,15,16,16,18,18,19,19,21,21,23,23,24,24,25,25,26,26,27,27,28,28,30,30,35,35,36,36,40,40,43,43,45,45,46,46,47,47,48,48,49,49,50,50,51,51,52,52,53,53,54,54,56,56,57,57,61,61,63,63,64,64,65,65,66,66,70,70,71,71,72,72,81,81,82,82,87,87,89,89,90,90,91,91,92,92,95,95,98,98,100,100,101,101,102,102,103,103,104,104,105,105],"right_children":[2,4,6,8,10,12,14,16,18,20,22,24,26,28,30,32,34,-1,36,38,-1,40,-1,42,44,46,48,50,52,-1,54,-1,-1,-1,-1,56,58,-1,-1,-1,60,-1,-1,62,-1,64,66,68,70,72,74,76,78,80,82,-1,84,86,-1,-1,-1,88,-1,90,92,94,96,-1,-1,-1,98,100,102,-1,-1,-1,-1,-1,-1,-1,-1,104,106,-1,-1,-1,-1,108,-1,110,112,114,116,-1,-1,118,-1,-1,120,-1,122,124,126,128,130,132,-1,-1,-1,-1,-1,-1,-1,-1,-1,-1,-1,-1,-1,-1,-1,-1,-1,-1,-1,-1,-1,-1,-1,-1,-1,-1,-1],"split_conditions":[1.123199E6,6.87694E5,2.637945E6,5.700962E6,1.8812E4,1.2226E5,1E0,1.4E1,4.68057E5,8.48E2,1E0,3.2083384E5,6E5,1E0,1E0,7.736E5,5.0055494E5,-2.9850432E-1,7.74379E5,8.05029E5,-3.3336362E-1,6.2441E4,-2.0459482E-1,6.55004E5,1E0,1E0,3E0,1.504E3,1E0,3.209527E-1,1.0274104E6,-3.125652E-1,-1.0305792E-1,1.376732E-1,-2.478205E-1,2.2E4,9.4586E4,-1.850943E-1,1.9497544E-1,3.7385136E-1,3.96815E5,-2.2804362E-1,6.585224E-2,1E0,-1.4975378E-1,5E0,6.952267E5,1.20108E5,4.4110356E5,9.067696E6,4.004E5,1E0,1.8E1,1E0,2.759052E6,-8.943819E-2,1.50421E5,2.19543E5,-2.8726467E-1,1.7837231E-1,-1.646077E-1,1.506E3,9.073481E-3,4.006464E6,1E0,3.00795E5,1E0,-2.6179406E-1,1.0233186E-1,-8.464001E-2,1.2178761E6,2E0,1.0488643E7,2.5268483E-1,-2.5005546E-1,9.2403835E-4,2.5031754E-1,-2.4526265E-1,6.853308E-2,-5.3595647E-2,3.4956846E-1,5.060405E6,2.015621E6,4.371093E-1,-1.1287911E-2,6.400985E-2,-9.733281E-2,1.543687E6,-2.6125433E-2,3E0,2E0,1.6446692E6,3.12177E5,-4.654824E-2,-3.3156273E-1,1E0,-3.2645434E-1,2.7045155E-2,1.875235E6,5.1614426E-2,4.4977853E5,1.4990891E6,5E0,7.238127E6,2E0,3E0,-3.2263657E-1,3.1153342E-1,6.354976E-2,2.339326E-1,-3.6826476E-2,-3.3725467E-1,-1.1123921E-2,2.2842012E-1,3.6948742E-3,-2.608782E-1,4.591676E-3,2.1022466E-1,-1.1008457E-1,3.4523806E-1,-1.9835837E-2,2.0488435E-1,3.2031992E-1,2.1493773E-1,-1.4970773E-1,7.669547E-2,2.888572E-1,8.972044E-2,-2.6594484E-1,3.473926E-1,-1.9819091E-1,1.13104954E-1,-2.1566558E-1],"split_indices":[5,4,5,7,3,0,13,6,2,3,15,4,0,14,16,3,2,0,2,5,0,3,0,2,14,19,6,1,20,0,2,0,0,0,0,0,0,0,0,0,0,0,0,13,0,6,4,3,4,5,0,19,6,18,3,0,0,4,0,0,0,1,0,7,13,2,15,0,0,0,5,6,5,0,0,0,0,0,0,0,0,5,4,0,0,0,0,3,0,6,9,5,0,0,0,16,0,0,0,0,2,2,6,7,8,8,0,0,0,0,0,0,0,0,0,0,0,0,0,0,0,0,0,0,0,0,0,0,0,0,0,0,0],"split_type":[0,0,0,0,0,0,0,0,0,0,0,0,0,0,0,0,0,0,0,0,0,0,0,0,0,0,0,0,0,0,0,0,0,0,0,0,0,0,0,0,0,0,0,0,0,0,0,0,0,0,0,0,0,0,0,0,0,0,0,0,0,0,0,0,0,0,0,0,0,0,0,0,0,0,0,0,0,0,0,0,0,0,0,0,0,0,0,0,0,0,0,0,0,0,0,0,0,0,0,0,0,0,0,0,0,0,0,0,0,0,0,0,0,0,0,0,0,0,0,0,0,0,0,0,0,0,0,0,0,0,0,0,0],"sum_hessian":[3.160136E2,9.264047E1,2.2337312E2,7.863233E1,1.4008141E1,1.09325096E2,1.14048035E2,6.308435E1,1.5547982E1,6.676487E0,7.3316536E0,3.4296165E1,7.502893E1,8.690812E1,2.7139914E1,5.9087555E1,3.9967976E0,5.884677E0,9.663305E0,2.2012386E0,4.4752483E0,4.547225E0,2.7844288E0,6.4748282E0,2.7821339E1,5.9078327E1,1.59506035E1,8.080099E1,6.1071286E0,5.1967735E0,2.194314E1,5.7467243E1,1.6203107E0,1.3433697E0,2.6534278E0,3.5982091E0,6.065096E0,1.0590883E0,1.1421503E0,1.6187962E0,2.9284286E0,4.6208334E0,1.8539946E0,2.6754202E1,1.0671372E0,2.6439682E1,3.2638645E1,2.366698E0,1.3583906E1,7.793115E1,2.8698335E0,3.1722562E0,2.9348726E0,3.8314095E0,1.811173E1,1.4407706E0,2.1574385E0,2.617349E0,3.447747E0,1.1985407E0,1.7298878E0,2.4782858E1,1.9713433E0,8.574039E0,1.7865643E1,1.1409941E1,2.1228704E1,1.3254657E0,1.0412323E0,1.8116943E0,1.1772212E1,6.010607E1,1.7825085E1,1.6650271E0,1.2048063E0,1.1673119E0,2.0049443E0,1.8124268E0,1.1224458E0,1.8733848E0,1.9580246E0,8.864134E0,9.247597E0,1.1370168E0,1.0204216E0,1.056903E0,1.560446E0,2.3502459E1,1.2804002E0,2.9881582E0,5.5858808E0,1.4691315E1,3.1743279E0,1.7703576E0,9.639583E0,1.6175333E1,5.053372E0,1.0311826E0,1.0741029E1,1.021866E0,5.9084206E1,5.4726815E0,1.2352403E1,5.0974417E0,3.7666924E0,2.4924154E0,6.7551813E0,2.117992E1,2.3225386E0,1.0514344E0,1.936724E0,4.539061E0,1.0468194E0,7.0742E0,7.617114E0,2.1478372E0,1.0264908E0,3.4762635E0,1.269907E1,9.650314E0,1.0907142E0,7.866109E0,5.1218094E1,1.7061452E0,3.7665365E0,1.3757077E0,1.0976695E1,1.0357016E0,4.06174E0,2.600006E0,1.1666863E0,1.0358858E0,1.4565296E0],"tree_param":{"num_deleted":"0","num_feature":"21","num_nodes":"133","size_leaf_vector":"1"}},{"base_weights":[5.607483E-3,-7.797592E-1,3.0685768E-1,-8.709965E-1,-3.8339835E-1,-2.7517129E-2,5.2794474E-1,-5.204957E-1,-9.65061E-1,1.4161737E-2,-7.729585E-1,2.735312E-1,-2.710675E-1,7.1002847E-1,-9.1444105E-2,-6.672746E-1,1.5805224E-1,-9.795641E-1,-6.74878E-2,-5.789226E-1,4.2312655E-1,-8.760502E-1,-2.4790082E-2,3.6804512E-1,-5.403797E-1,-7.640794E-1,-1.03195205E-1,7.757262E-1,7.642115E-2,6.1672896E-1,-3.6399433E-1,-2.6291892E-1,2.2825377E-2,2.0590338E-1,-1.0603713E-1,-1.0231522E0,-5.4588944E-1,-2.3969838E-1,1.2307483E-2,3.333021E-1,2.88652E-3,-7.364714E-2,-2.827426E-1,-4.0594074E-1,4.7925237E-1,-2.842168E-1,2.4061523E-2,-9.1486573E-1,-9.954922E-2,7.125537E-1,-2.646831E-1,5.338653E-1,9.778458E-1,6.388267E-1,-2.7190292E-1,4.422862E-2,3.2475063E-1,5.128774E-1,-5.799743E-1,-1.6381562E-1,1.4972815E-1,-3.0924094E-1,-5.8888644E-2,4.5231294E-2,-2.629269E-1,-1.8927585E-1,3.7740368E-1,-2.2189428E-1,1.0757075E-1,4.2311527E-2,7.0504755E-1,-3.077307E-1,6.894925E-3,1.2106262E-1,-1.5938862E-1,2.690486E-1,-2.3758428E-2,3.100218E-1,-4.3264902E-1,9.7769076E-1,1.5812536E-1,4.2117175E-1,1.0598375E0,1.5421191E-2,2.4379745E-1,-5.6268644E-1,1.182356E-1,2.2132346E-1,-5.072197E-1,-1.2428721E-1,2.6598856E-1,-2.5559023E-1,-9.171593E-1,2.4196427E-1,-9.8204195E-2,4.6858126E-1,-3.7039572E-1,3.377091E-1,4.3270668E-1,5.920827E-1,-9.3637794E-2,-5.7583934E-1,4.9153465E-1,2.99309E-1,6.819739E-2,2.601897E-1,-1.0170287E-1,-1.8663633E-1,2.2416513E-1,3.1933615E-1,8.557954E-2,1.7241083E-2,-2.4893495E-1,-1.9671959E-1,-2.4219751E-2,-6.768671E-1,5.2707446E-1,-3.0696386E-2,-3.0178052E-1,2.3564236E-1,-1.8761208E-2,-2.2855037E-1,1.04149446E-1,2.451084E-1,2.7211776E-4,2.9375008E-1,-3.7287183E-2,-1.0914258E-2,-2.2652291E-1,2.0706926E-1,5.517957E-3,4.3388132E-2,-3.2370484E-1,-1.9857697E-1,1.01781294E-1,8.988179E-2,-2.6389438E-1,3.270059E-1,-1.8009953E-1],"categories":[],"categories_nodes":[],"categories_segments":[],"categories_sizes":[],"default_left":[0,0,0,0,0,0,0,0,0,0,0,0,0,0,0,0,0,0,0,0,0,0,0,0,0,0,0,0,0,0,0,0,0,0,0,0,0,0,0,0,0,0,0,0,0,0,0,0,0,0,0,0,0,0,0,0,0,0,0,0,0,0,0,0,0,0,0,0,0,0,0,0,0,0,0,0,0,0,0,0,0,0,0,0,0,0,0,0,0,0,0,0,0,0,0,0,0,0,0,0,0,0,0,0,0,0,0,0,0,0,0,0,0,0,0,0,0,0,0,0,0,0,0,0,0,0,0,0,0,0,0,0,0,0,0,0,0,0,0],"id":6,"left_children":[1,3,5,7,9,11,13,15,17,19,21,23,25,27,29,31,33,35,-1,37,39,41,-1,43,45,47,49,51,53,55,57,-1,59,-1,-1,61,63,-1,-1,-1,65,-1,-1,67,69,-1,-1,71,73,75,77,79,81,83,85,87,-1,89,91,-1,-1,-1,-1,-1,-1,-1,93,-1,-1,95,97,-1,-1,-1,-1,-1,-1,99,101,103,105,107,109,-1,-1,111,-1,-1,113,-1,-1,115,117,-1,-1,119,121,-1,123,125,-1,127,129,-1,-1,-1,131,133,-1,-1,-1,-1,-1,-1,-1,135,137,-1,-1,-1,-1,-1,-1,-1,-1,-1,-1,-1,-1,-1,-1,-1,-1,-1,-1,-1,-1,-1,-1],"loss_changes":[6.460322E1,2.4037209E0,1.46032715E1,1.5006638E0,2.4814332E0,5.9029384E0,1.3468349E1,1.6019192E0,2.7653885E-1,2.3980215E0,5.0050783E-1,2.9720538E0,3.5997732E0,3.7686653E0,5.6068196E0,1.9253612E0,1.2127532E0,3.019867E-1,0E0,6.1098826E-1,1.7165337E0,1.0229349E-1,0E0,3.0258327E0,1.1598462E0,1.0245829E0,4.7088504E0,3.5457E0,2.083441E0,2.179837E0,4.230082E0,0E0,1.3927044E0,0E0,0E0,4.730835E-1,1.6385609E0,0E0,0E0,0E0,1.3585783E0,0E0,0E0,1.5044775E0,2.8530035E0,0E0,0E0,1.0632219E0,9.2842776E-1,9.934468E-1,2.9694753E0,6.5298624E0,1.5676956E0,3.9192104E-1,1.5358975E0,2.2167325E0,0E0,2.0393445E0,1.6392808E0,0E0,0E0,0E0,0E0,0E0,0E0,0E0,1.3805165E0,0E0,0E0,2.1121078E0,1.7799892E0,0E0,0E0,0E0,0E0,0E0,0E0,1.4630235E0,3.3461657E0,2.0878792E-1,4.3733273E0,1.6342497E0,2.1068573E-1,0E0,0E0,9.281621E-1,0E0,0E0,1.6261262E-1,0E0,0E0,3.6926389E0,5.5512476E-1,0E0,0E0,1.0690134E0,2.0532966E0,0E0,2.2848551E0,1.6525364E0,0E0,2.0567412E0,3.4431762E-1,0E0,0E0,0E0,4.5172896E0,1.1034911E0,0E0,0E0,0E0,0E0,0E0,0E0,0E0,1.7400508E0,3.3551788E0,0E0,0E0,0E0,0E0,0E0,0E0,0E0,0E0,0E0,0E0,0E0,0E0,0E0,0E0,0E0,0E0,0E0,0E0,0E0,0E0,0E0,0E0],"parents":[2147483647,0,0,1,1,2,2,3,3,4,4,5,5,6,6,7,7,8,8,9,9,10,10,11,11,12,12,13,13,14,14,15,15,16,16,17,17,19,19,20,20,21,21,23,23,24,24,25,25,26,26,27,27,28,28,29,29,30,30,32,32,35,35,36,36,40,40,43,43,44,44,47,47,48,48,49,49,50,50,51,51,52,52,53,53,54,54,55,55,57,57,58,58,66,66,69,69,70,70,77,77,78,78,79,79,80,80,81,81,82,82,85,85,88,88,91,91,92,92,95,95,96,96,98,98,99,99,101,101,102,102,106,106,107,107,115,115,116,116],"right_children":[2,4,6,8,10,12,14,16,18,20,22,24,26,28,30,32,34,36,-1,38,40,42,-1,44,46,48,50,52,54,56,58,-1,60,-1,-1,62,64,-1,-1,-1,66,-1,-1,68,70,-1,-1,72,74,76,78,80,82,84,86,88,-1,90,92,-1,-1,-1,-1,-1,-1,-1,94,-1,-1,96,98,-1,-1,-1,-1,-1,-1,100,102,104,106,108,110,-1,-1,112,-1,-1,114,-1,-1,116,118,-1,-1,120,122,-1,124,126,-1,128,130,-1,-1,-1,132,134,-1,-1,-1,-1,-1,-1,-1,136,138,-1,-1,-1,-1,-1,-1,-1,-1,-1,-1,-1,-1,-1,-1,-1,-1,-1,-1,-1,-1,-1,-1],"split_conditions":[1.112287E6,6.43645E5,2.137716E6,1E0,4E0,1E0,1E0,1E1,1.503E3,9.0163294E5,6.85012E6,1.502E3,4.4110356E5,1E0,1.131802E6,6.396801E6,5.324E4,7.312739E6,-6.74878E-2,4.9420828E5,2.59311E6,2.0654E4,-2.4790082E-2,2.3462342E5,3.554256E6,1E1,5.24E4,5.700962E6,1E0,5.565177E6,1E0,-2.6291892E-1,4E0,2.0590338E-1,-1.0603713E-1,1.04830706E6,7.826087E6,-2.3969838E-1,1.2307483E-2,3.333021E-1,1.8812E4,-7.364714E-2,-2.827426E-1,7.03853E5,5E0,-2.842168E-1,2.4061523E-2,5.860152E6,1.6E1,2E0,1E0,4.239144E6,7.428998E5,3.1983E5,7.943986E6,3.923078E6,3.2475063E-1,4.035965E6,2.759052E6,-1.6381562E-1,1.4972815E-1,-3.0924094E-1,-5.8888644E-2,4.5231294E-2,-2.629269E-1,-1.8927585E-1,2.93713E5,-2.2189428E-1,1.0757075E-1,4.006464E6,1.50421E5,-3.077307E-1,6.894925E-3,1.2106262E-1,-1.5938862E-1,2.690486E-1,-2.3758428E-2,1E0,7.736E5,1.503E3,1E0,2.90997E6,1.509E3,1.5421191E-2,2.4379745E-1,5.3135E5,1.182356E-1,2.2132346E-1,2.015621E6,-1.2428721E-1,2.6598856E-1,5.060405E6,1.340265E6,2.4196427E-1,-9.8204195E-2,3.45107E5,5.539395E6,3.377091E-1,1.634353E6,1.724011E6,-9.3637794E-2,4.032574E6,8.7956E5,2.99309E-1,6.819739E-2,2.601897E-1,1.449547E6,6E0,2.2416513E-1,3.1933615E-1,8.557954E-2,1.7241083E-2,-2.4893495E-1,-1.9671959E-1,-2.4219751E-2,7.0741E6,2E0,-3.0696386E-2,-3.0178052E-1,2.3564236E-1,-1.8761208E-2,-2.2855037E-1,1.04149446E-1,2.451084E-1,2.7211776E-4,2.9375008E-1,-3.7287183E-2,-1.0914258E-2,-2.2652291E-1,2.0706926E-1,5.517957E-3,4.3388132E-2,-3.2370484E-1,-1.9857697E-1,1.01781294E-1,8.988179E-2,-2.6389438E-1,3.270059E-1,-1.8009953E-1],"split_indices":[5,4,5,16,8,19,13,6,1,5,7,1,4,15,2,7,3,7,0,2,7,0,0,4,7,6,0,7,19,7,16,0,6,0,0,5,7,0,0,0,3,0,0,2,6,0,0,7,6,9,16,7,4,0,7,7,0,5,3,0,0,0,0,0,0,0,3,0,0,7,0,0,0,0,0,0,0,15,3,1,16,5,1,0,0,0,0,0,4,0,0,5,4,0,0,2,7,0,5,5,0,7,3,0,0,0,2,6,0,0,0,0,0,0,0,7,8,0,0,0,0,0,0,0,0,0,0,0,0,0,0,0,0,0,0,0,0,0,0],"split_type":[0,0,0,0,0,0,0,0,0,0,0,0,0,0,0,0,0,0,0,0,0,0,0,0,0,0,0,0,0,0,0,0,0,0,0,0,0,0,0,0,0,0,0,0,0,0,0,0,0,0,0,0,0,0,0,0,0,0,0,0,0,0,0,0,0,0,0,0,0,0,0,0,0,0,0,0,0,0,0,0,0,0,0,0,0,0,0,0,0,0,0,0,0,0,0,0,0,0,0,0,0,0,0,0,0,0,0,0,0,0,0,0,0,0,0,0,0,0,0,0,0,0,0,0,0,0,0,0,0,0,0,0,0,0,0,0,0,0,0],"sum_hessian":[2.7104626E2,7.4703636E1,1.9634264E2,5.9752003E1,1.4951631E1,7.8497536E1,1.178451E2,1.4025174E1,4.572683E1,7.876761E0,7.0748696E0,3.5049885E1,4.3447647E1,9.09592E1,2.6885902E1,1.154455E1,2.4806244E0,4.452244E1,1.2043855E0,3.0451202E0,4.8316407E0,5.918718E0,1.1561521E0,3.1894054E1,3.155832E0,1.0134072E1,3.3313572E1,8.221061E1,8.748587E0,7.1208467E0,1.9765057E1,8.536526E0,3.0080237E0,1.0456247E0,1.4349996E0,3.9221107E1,5.301334E0,1.9998171E0,1.0453031E0,1.1816536E0,3.6499872E0,1.1188495E0,4.799868E0,3.6739066E0,2.8220148E1,1.5608878E0,1.5949444E0,7.952815E0,2.1812575E0,4.9411488E0,2.8372425E1,3.9083607E1,4.3127003E1,3.027068E0,5.7215185E0,3.74264E0,3.3782065E0,3.6344907E0,1.6130566E1,1.3050538E0,1.7029699E0,3.8008934E1,1.2121767E0,1.9221839E0,3.37915E0,1.0851212E0,2.564866E0,2.5588756E0,1.115031E0,1.0019193E1,1.8200954E1,6.931668E0,1.0211475E0,1.0417421E0,1.1395154E0,3.8470953E0,1.0940537E0,6.2255645E0,2.214686E1,1.7183887E1,2.189972E1,6.3244653E0,3.680254E1,1.0287807E0,1.9982872E0,4.10415E0,1.6173689E0,1.4897127E0,2.2529273E0,1.0355531E0,2.5989375E0,9.117355E0,7.0132103E0,1.4897344E0,1.0751317E0,4.8620157E0,5.1571765E0,5.783843E0,1.2417111E1,4.3292823E0,1.896282E0,1.9502172E1,2.6446888E0,1.6131962E1,1.0519258E0,5.176258E0,1.6723461E1,2.406544E0,3.9179213E0,3.5578312E1,1.2242259E0,1.5116913E0,2.5924585E0,1.2369583E0,1.015969E0,6.0149345E0,3.1024206E0,1.0008059E0,6.0124044E0,2.7052376E0,2.1567783E0,3.2715843E0,1.8855922E0,6.0099826E0,6.4071293E0,2.5371816E0,1.7921008E0,5.3663E0,1.4135872E1,1.506506E0,1.1381829E0,1.405555E1,2.667912E0,1.1204238E0,1.2861202E0,1.0018615E0,5.013073E0,2.0755486E0,1.0268718E0],"tree_param":{"num_deleted":"0","num_feature":"21","num_nodes":"139","size_leaf_vector":"1"}},{"base_weights":[6.2181987E-3,-6.961574E-1,2.6953575E-1,-7.9661924E-1,-2.9739416E-1,3.334704E-2,5.3107697E-1,-8.808377E-1,-4.0637335E-1,1.7714328E-1,-4.9036053E-1,4.5211363E-1,-1.4517882E-1,6.8474716E-1,-1.887219E-1,-9.10436E-1,-2.9938372E-2,-2.72867E-2,-2.741909E-1,5.419803E-1,-1.1972775E-1,7.183817E-2,-6.36655E-1,-2.0849754E-1,6.887654E-1,-3.2354203E-1,5.1630497E-1,7.7627915E-1,2.1499717E-1,2.4845406E-1,-3.8081458E-1,-9.4510525E-1,-1.889017E-1,-4.3075314E-1,2.0882966E-1,-4.5576986E-2,3.0078658E-1,-7.097171E-2,1.0339948E-1,-7.820031E-1,-2.346287E-2,-4.6287194E-1,1.13433115E-1,8.2286865E-1,-1.7321688E-1,-1.4110237E-1,-7.6454896E-1,-3.4283647E-1,6.942481E-1,8.11459E-1,2.8163176E-2,2.7644747E-1,-1.5004025E-1,-5.8597225E-1,1.901957E-1,-9.6541816E-1,-9.401338E-2,9.336228E-2,-1.7700322E-1,-2.3171677E-1,6.6651806E-2,-7.0305154E-2,-2.7499256E-1,-6.019581E-1,3.3531938E-2,3.131604E-1,5.013038E-1,1.0374095E-1,-1.9134916E-1,-4.7241518E-1,1.2631136E-1,-8.385827E-1,3.8285773E-2,4.0995315E-2,-1.9117118E-1,-6.42255E-2,8.646389E-1,9.120121E-1,4.6639237E-1,2.1820132E-1,-2.2530183E-1,1.931034E-1,-3.381187E-1,1.05400406E-1,-7.723963E-1,-2.980289E-1,-5.455398E-1,-1.191719E-1,1.529258E-1,-6.805459E-1,-4.3947E-2,6.743282E-1,-6.618126E-2,5.578993E-1,-6.580758E-1,-1.3813047E-1,1.1173388E0,-4.1295925E-1,-2.9694068E-1,4.505958E-2,9.2989886E-1,5.85025E-1,3.0378228E-1,-1.13995016E-1,7.7838033E-1,-2.5430554E-1,6.127803E-3,2.4094531E-2,-2.5927836E-1,9.8422706E-2,-2.4713156E-1,-4.7246993E-2,-2.3961084E-1,2.6269785E-1,-7.6203495E-3,2.7798759E-2,2.2923912E-1,-2.6019773E-2,-2.7187458E-1,1.6679542E-1,-1.4477038E-1,4.9324628E-2,4.1776627E-1,7.254075E-2,-1.8304537E-1,3.1424457E-1,-8.863314E-3,2.767689E-1,5.4249067E-2,1.4244266E-1,-1.5148698E-1,4.1040424E-2,2.5052503E-1,1.4864165E-1,-1.1956402E-1],"categories":[],"categories_nodes":[],"categories_segments":[],"categories_sizes":[],"default_left":[0,0,0,0,0,0,0,0,0,0,0,0,0,0,0,0,0,0,0,0,0,0,0,0,0,0,0,0,0,0,0,0,0,0,0,0,0,0,0,0,0,0,0,0,0,0,0,0,0,0,0,0,0,0,0,0,0,0,0,0,0,0,0,0,0,0,0,0,0,0,0,0,0,0,0,0,0,0,0,0,0,0,0,0,0,0,0,0,0,0,0,0,0,0,0,0,0,0,0,0,0,0,0,0,0,0,0,0,0,0,0,0,0,0,0,0,0,0,0,0,0,0,0,0,0,0,0,0,0,0,0,0,0,0,0],"id":7,"left_children":[1,3,5,7,9,11,13,15,17,19,21,23,25,27,29,31,-1,33,-1,35,-1,37,39,41,43,45,47,49,51,-1,53,55,57,59,-1,-1,-1,-1,-1,61,-1,63,-1,65,67,69,71,73,75,77,79,-1,81,83,-1,85,-1,-1,-1,-1,87,-1,-1,89,-1,-1,91,-1,-1,93,95,97,-1,-1,-1,-1,99,101,103,-1,-1,-1,105,-1,107,-1,109,-1,-1,111,-1,113,-1,115,117,119,121,123,-1,-1,125,127,-1,129,131,-1,133,-1,-1,-1,-1,-1,-1,-1,-1,-1,-1,-1,-1,-1,-1,-1,-1,-1,-1,-1,-1,-1,-1,-1,-1,-1,-1,-1,-1],"loss_changes":[4.3873093E1,2.3544216E0,1.0639311E1,1.3206024E0,1.4249474E0,6.922698E0,9.177116E0,8.577957E-1,2.1236486E0,1.2705507E0,9.219711E-1,4.467431E0,7.8434253E0,2.740736E0,3.313716E0,8.100891E-1,0E0,2.47225E0,0E0,1.2997842E0,0E0,3.5094988E-1,6.312866E-1,1.3899181E0,2.5232315E0,4.0646043E0,2.4093416E0,1.4565887E0,3.392856E0,0E0,3.2027912E0,1.7138672E-1,8.1854427E-1,9.876466E-1,0E0,0E0,0E0,0E0,0E0,3.1082535E-1,0E0,5.560436E-1,0E0,8.245287E-1,1.1161666E0,3.4184313E0,1.0975361E0,5.4122275E-1,2.0651393E0,1.4362488E0,2.5485504E0,0E0,1.5909591E0,2.3364267E0,0E0,5.873871E-2,0E0,0E0,0E0,0E0,8.687801E-1,0E0,0E0,7.958698E-2,0E0,0E0,1.3396206E0,0E0,0E0,3.6464283E0,5.8588395E0,5.566511E-1,0E0,0E0,0E0,0E0,3.417902E-1,8.998108E-1,2.651494E0,0E0,0E0,0E0,1.4414394E0,0E0,9.579334E-1,0E0,1.626369E0,0E0,0E0,1.4061522E-1,0E0,1.1972921E0,0E0,2.4371183E-1,2.1367683E0,4.7153153E0,1.0715418E0,9.017524E-1,0E0,0E0,1.2010336E0,1.6173162E0,0E0,1.6209581E0,2.8377676E-1,0E0,1.3837278E0,0E0,0E0,0E0,0E0,0E0,0E0,0E0,0E0,0E0,0E0,0E0,0E0,0E0,0E0,0E0,0E0,0E0,0E0,0E0,0E0,0E0,0E0,0E0,0E0,0E0,0E0,0E0,0E0],"parents":[2147483647,0,0,1,1,2,2,3,3,4,4,5,5,6,6,7,7,8,8,9,9,10,10,11,11,12,12,13,13,14,14,15,15,17,17,19,19,21,21,22,22,23,23,24,24,25,25,26,26,27,27,28,28,30,30,31,31,32,32,33,33,39,39,41,41,43,43,44,44,45,45,46,46,47,47,48,48,49,49,50,50,52,52,53,53,55,55,60,60,63,63,66,66,69,69,70,70,71,71,76,76,77,77,78,78,82,82,84,84,86,86,89,89,91,91,93,93,94,94,95,95,96,96,97,97,100,100,101,101,103,103,104,104,106,106],"right_children":[2,4,6,8,10,12,14,16,18,20,22,24,26,28,30,32,-1,34,-1,36,-1,38,40,42,44,46,48,50,52,-1,54,56,58,60,-1,-1,-1,-1,-1,62,-1,64,-1,66,68,70,72,74,76,78,80,-1,82,84,-1,86,-1,-1,-1,-1,88,-1,-1,90,-1,-1,92,-1,-1,94,96,98,-1,-1,-1,-1,100,102,104,-1,-1,-1,106,-1,108,-1,110,-1,-1,112,-1,114,-1,116,118,120,122,124,-1,-1,126,128,-1,130,132,-1,134,-1,-1,-1,-1,-1,-1,-1,-1,-1,-1,-1,-1,-1,-1,-1,-1,-1,-1,-1,-1,-1,-1,-1,-1,-1,-1,-1,-1],"split_conditions":[1.123199E6,6.396801E6,2.637945E6,6.570559E5,6.7E4,1.2226E5,1E0,1.503E3,6E0,1.99517E5,1E0,3.803717E5,6E5,1E0,9.7062E5,1.04830706E6,-2.9938372E-2,6E0,-2.741909E-1,6.40269E5,-1.1972775E-1,2.50743E5,9.7061444E5,3E0,1E0,9.4597206E5,3E0,1.504E3,1E0,2.4845406E-1,3.2811432E6,1E0,5.0055494E5,4.7635E4,2.0882966E-1,-4.5576986E-2,3.0078658E-1,-7.097171E-2,1.0339948E-1,1E0,-2.346287E-2,9E4,1.13433115E-1,6.44863E5,1E0,7.35907E5,1.910325E6,5.136515E6,4.4110356E5,9.067696E6,4.004E5,2.7644747E-1,5.6419E4,1.023827E6,1.901957E-1,6E0,-9.401338E-2,9.336228E-2,-1.7700322E-1,-2.3171677E-1,7.57327E5,-7.0305154E-2,-2.7499256E-1,5.226916E5,3.3531938E-2,3.131604E-1,1.32545E6,1.0374095E-1,-1.9134916E-1,2.04338E5,6.648577E6,3.93498E5,3.8285773E-2,4.0995315E-2,-1.9117118E-1,-6.42255E-2,1.242913E6,7E0,1.0488643E7,2.1820132E-1,-2.2530183E-1,1.931034E-1,6.37E5,1.05400406E-1,1E0,-2.980289E-1,1.2599E4,-1.191719E-1,1.529258E-1,1.8545E4,-4.3947E-2,5.236541E6,-6.618126E-2,3.1983E5,2.1E5,3.738509E6,2.52912E5,1.108804E6,-2.9694068E-1,4.505958E-2,1.875235E6,2.090429E6,3.0378228E-1,1E0,5E0,-2.5430554E-1,2.143613E6,2.4094531E-2,-2.5927836E-1,9.8422706E-2,-2.4713156E-1,-4.7246993E-2,-2.3961084E-1,2.6269785E-1,-7.6203495E-3,2.7798759E-2,2.2923912E-1,-2.6019773E-2,-2.7187458E-1,1.6679542E-1,-1.4477038E-1,4.9324628E-2,4.1776627E-1,7.254075E-2,-1.8304537E-1,3.1424457E-1,-8.863314E-3,2.767689E-1,5.4249067E-2,1.4244266E-1,-1.5148698E-1,4.1040424E-2,2.5052503E-1,1.4864165E-1,-1.1956402E-1],"split_indices":[5,7,5,4,0,0,14,1,8,3,16,4,0,13,2,5,0,6,0,2,0,0,5,8,13,2,6,1,16,0,2,10,2,3,0,0,0,0,0,19,0,0,0,3,16,4,2,7,4,5,0,0,0,3,0,8,0,0,0,0,4,0,0,2,0,0,4,0,0,2,7,3,0,0,0,0,5,6,5,0,0,0,0,0,16,0,3,0,0,0,0,7,0,0,0,7,3,2,0,0,0,4,0,16,6,0,3,0,0,0,0,0,0,0,0,0,0,0,0,0,0,0,0,0,0,0,0,0,0,0,0,0,0,0,0],"split_type":[0,0,0,0,0,0,0,0,0,0,0,0,0,0,0,0,0,0,0,0,0,0,0,0,0,0,0,0,0,0,0,0,0,0,0,0,0,0,0,0,0,0,0,0,0,0,0,0,0,0,0,0,0,0,0,0,0,0,0,0,0,0,0,0,0,0,0,0,0,0,0,0,0,0,0,0,0,0,0,0,0,0,0,0,0,0,0,0,0,0,0,0,0,0,0,0,0,0,0,0,0,0,0,0,0,0,0,0,0,0,0,0,0,0,0,0,0,0,0,0,0,0,0,0,0,0,0,0,0,0,0,0,0,0,0],"sum_hessian":[2.3520425E2,6.3685413E1,1.7151884E2,5.0072693E1,1.361272E1,9.072015E1,8.079868E1,4.0150692E1,9.922003E0,3.9589593E0,9.653761E0,2.665747E1,6.406268E1,6.6623825E1,1.4174856E1,3.8521038E1,1.6296511E0,6.3422046E0,3.5797985E0,2.4737034E0,1.485256E0,2.0984647E0,7.555296E0,7.062247E0,1.9595224E1,5.0859703E1,1.3202981E1,5.5212914E1,1.1410915E1,1.7029397E0,1.2471916E1,3.6459335E1,2.061703E0,4.3541346E0,1.98807E0,1.2744662E0,1.1992372E0,1.0520953E0,1.0463696E0,5.673323E0,1.8819728E0,5.0899286E0,1.9723182E0,1.6996382E1,2.5988424E0,3.6910282E1,1.3949418E1,2.1063724E0,1.1096608E1,5.265229E1,2.5606234E0,3.3216264E0,8.089289E0,1.0743755E1,1.7281607E0,3.4795776E1,1.6635612E0,1.0252814E0,1.0364217E0,2.2165303E0,2.137604E0,1.7546769E0,3.918646E0,4.0637393E0,1.0261894E0,8.513512E0,8.48287E0,1.3561516E0,1.2426908E0,1.6143122E1,2.0767162E1,1.2939342E1,1.0100768E0,1.0221142E0,1.0842582E0,1.705565E0,9.391044E0,3.9499157E1,1.3153132E1,1.3838147E0,1.1768087E0,1.0686468E0,7.0206423E0,1.6253586E0,9.118397E0,3.0467485E1,4.3282895E0,1.09771E0,1.039894E0,3.0373573E0,1.0263819E0,6.9039135E0,1.5789562E0,2.1586823E0,1.398444E1,1.707228E1,3.694881E0,4.5708385E0,8.368503E0,1.0673264E0,8.323717E0,1.1746574E1,2.7752583E1,4.820407E0,8.332726E0,2.2013087E0,4.8193336E0,1.0010847E0,8.117312E0,1.0333623E0,3.2949271E0,1.0424287E0,1.9949287E0,5.093116E0,1.8107978E0,1.1405092E0,1.018173E0,4.7919517E0,9.192489E0,5.4879975E0,1.1584284E1,1.2386363E0,2.4562447E0,1.038901E0,3.5319374E0,7.2339597E0,1.0897574E0,5.578243E0,6.168332E0,1.8462886E0,2.9741182E0,1.0820698E0,7.2506557E0,2.0794015E0,2.739932E0],"tree_param":{"num_deleted":"0","num_feature":"21","num_nodes":"135","size_leaf_vector":"1"}},{"base_weights":[9.681117E-3,-6.394954E-1,2.3316132E-1,-2.924232E-1,-7.6558375E-1,3.371253E-1,-2.8388163E-1,-7.6417756E-1,-3.760362E-2,-8.620971E-1,-2.9700452E-1,8.168412E-1,1.6766979E-1,3.938564E-1,-4.101696E-1,-2.557324E-1,-5.2801408E-2,4.1656542E-1,-5.8098996E-1,-9.238161E-1,-4.1270992E-1,3.1862598E-2,-2.4681753E-1,3.2622203E-1,9.273221E-1,-2.953171E-3,6.94852E-1,-5.3624354E-2,6.073649E-1,-8.6488515E-1,-1.6853856E-1,-3.1995513E-2,2.8811654E-1,-2.4007876E-1,-5.6065307E-3,-9.495229E-1,-5.391682E-2,1.7493747E-1,-2.4374263E-1,5.2295256E-1,-5.005732E-1,2.1632002E-1,-5.7579E-2,4.377481E-1,9.899043E-1,3.8616955E-1,-2.4082579E-1,8.951952E-1,4.8155617E-3,2.5049356E-1,8.575094E-3,-2.9306352E-1,-1.8280445E-2,5.12174E-1,-3.4148055E-1,-1.935042E-1,4.6412215E-1,-2.8915367E-1,-6.4858146E-2,1.7610738E-1,-1.0298716E-1,-3.091828E-2,2.4673493E-1,-2.3220515E-2,-1.9326916E-1,-5.2446085E-1,1.8762064E-1,-9.935491E-2,2.4988772E-1,8.1821546E-2,3.0438372E-1,1.0436818E-1,9.655001E-1,-4.968711E-1,1.8453264E-1,3.0464625E-1,3.1714776E-1,-5.04151E-1,4.6051753E-1,2.4727964E-1,-1.6498484E-2,-8.552589E-2,-2.4340408E-1,1.8216437E-1,3.1981263E-2,-4.518557E-2,-2.1073954E-1,3.2022563E-1,-2.650694E-1,9.1151334E-2,1.0259634E0,-6.4435756E-1,-1.0461877E-3,4.4982842E-1,-2.8467053E-1,2.3878242E-1,-2.2325377E-1,-2.1321234E-1,-8.7529153E-4,2.3989771E-1,6.6749076E-3,1.7018546E-1,-3.7399408E-1,1.3545766E-1,-2.0768142E-1,3.3305573E-1,7.579792E-2,3.8105305E-2,-2.2615623E-1,8.781541E-2,-1.491692E-1,-7.154069E-2,2.2067313E-1,-2.1545808E-1,1.2057187E-1,-1.6034712E-1,9.290691E-2],"categories":[],"categories_nodes":[],"categories_segments":[],"categories_sizes":[],"default_left":[0,0,0,0,0,0,0,0,0,0,0,0,0,0,0,0,0,0,0,0,0,0,0,0,0,0,0,0,0,0,0,0,0,0,0,0,0,0,0,0,0,0,0,0,0,0,0,0,0,0,0,0,0,0,0,0,0,0,0,0,0,0,0,0,0,0,0,0,0,0,0,0,0,0,0,0,0,0,0,0,0,0,0,0,0,0,0,0,0,0,0,0,0,0,0,0,0,0,0,0,0,0,0,0,0,0,0,0,0,0,0,0,0,0,0,0,0],"id":8,"left_children":[1,3,5,7,9,11,13,15,17,19,21,23,25,27,29,-1,-1,31,33,35,37,39,-1,41,43,45,47,-1,49,51,53,55,-1,-1,-1,57,-1,59,-1,61,63,-1,65,67,69,71,73,75,77,-1,-1,-1,-1,79,81,-1,83,-1,-1,-1,-1,-1,-1,-1,-1,85,-1,-1,-1,-1,-1,87,89,91,93,95,-1,97,99,-1,-1,101,-1,-1,-1,-1,-1,103,-1,-1,105,107,109,111,-1,-1,113,-1,-1,-1,-1,-1,115,-1,-1,-1,-1,-1,-1,-1,-1,-1,-1,-1,-1,-1,-1],"loss_changes":[3.0170956E1,2.1069527E0,8.41003E0,1.8719727E0,1.4828434E0,1.0368772E1,2.4243088E0,1.645863E-1,3.0351305E0,4.8846626E-1,1.4530356E0,1.5120697E0,8.705557E0,6.8217516E-1,2.3565502E0,0E0,0E0,1.7133601E0,7.024834E-1,3.3761787E-1,1.4914377E0,1.8250052E0,0E0,1.2348499E0,3.8720894E-1,6.951505E0,3.2670126E0,0E0,4.7525978E-1,7.031293E-1,2.0718808E0,1.7519468E0,0E0,0E0,0E0,2.799816E-1,0E0,8.910702E-1,0E0,7.862567E-1,1.6533345E-1,0E0,1.9036199E0,1.7967572E0,3.2868385E-1,4.551256E0,5.1670938E0,1.5704021E0,1.7003033E0,0E0,0E0,0E0,0E0,7.173267E-1,1.5820949E0,0E0,1.0530466E-1,0E0,0E0,0E0,0E0,0E0,0E0,0E0,0E0,1.3153517E-1,0E0,0E0,0E0,0E0,0E0,4.6620183E0,5.0477028E-2,2.1464362E0,5.9742546E0,1.6595259E0,0E0,3.7228048E-1,5.723624E-1,0E0,0E0,2.0970829E0,0E0,0E0,0E0,0E0,0E0,2.7566648E0,0E0,0E0,3.1683445E-1,2.1779814E0,1.3046857E0,3.3380866E0,0E0,0E0,1.4094107E0,0E0,0E0,0E0,0E0,0E0,1.0301127E0,0E0,0E0,0E0,0E0,0E0,0E0,0E0,0E0,0E0,0E0,0E0,0E0,0E0,0E0],"parents":[2147483647,0,0,1,1,2,2,3,3,4,4,5,5,6,6,7,7,8,8,9,9,10,10,11,11,12,12,13,13,14,14,17,17,18,18,19,19,20,20,21,21,23,23,24,24,25,25,26,26,28,28,29,29,30,30,31,31,35,35,37,37,39,39,40,40,42,42,43,43,44,44,45,45,46,46,47,47,48,48,53,53,54,54,56,56,65,65,71,71,72,72,73,73,74,74,75,75,77,77,78,78,81,81,87,87,90,90,91,91,92,92,93,93,96,96,102,102],"right_children":[2,4,6,8,10,12,14,16,18,20,22,24,26,28,30,-1,-1,32,34,36,38,40,-1,42,44,46,48,-1,50,52,54,56,-1,-1,-1,58,-1,60,-1,62,64,-1,66,68,70,72,74,76,78,-1,-1,-1,-1,80,82,-1,84,-1,-1,-1,-1,-1,-1,-1,-1,86,-1,-1,-1,-1,-1,88,90,92,94,96,-1,98,100,-1,-1,102,-1,-1,-1,-1,-1,104,-1,-1,106,108,110,112,-1,-1,114,-1,-1,-1,-1,-1,116,-1,-1,-1,-1,-1,-1,-1,-1,-1,-1,-1,-1,-1,-1],"split_conditions":[1.112287E6,1E0,1E0,1E0,9.8256956E5,1E0,1.43737E5,9.35157E5,9.5935E4,7.312739E6,2E0,5E0,7.091094E6,5.799731E6,1.306006E6,-2.557324E-1,-5.2801408E-2,6E0,5.634762E6,1.503E3,1E0,3.39977E5,-2.4681753E-1,4.785835E6,4.40443E5,4.096735E6,1E0,-5.3624354E-2,8E0,5.48226E5,9.56543E5,3.0302E4,2.8811654E-1,-2.4007876E-1,-5.6065307E-3,7.52951E5,-5.391682E-2,1.04614E5,-2.4374263E-1,1.65445E5,6.0366E4,2.1632002E-1,2.637945E6,8.45659E5,1.5719E4,1.141541E6,5.610211E6,7.8902844E5,3.85115E5,2.5049356E-1,8.575094E-3,-2.9306352E-1,-1.8280445E-2,8E0,2.671386E6,-1.935042E-1,4.731672E6,-2.8915367E-1,-6.4858146E-2,1.7610738E-1,-1.0298716E-1,-3.091828E-2,2.4673493E-1,-2.3220515E-2,-1.9326916E-1,6.601606E6,1.8762064E-1,-9.935491E-2,2.4988772E-1,8.1821546E-2,3.0438372E-1,1E0,4E0,1.3E1,4E0,2.18015E5,3.1714776E-1,1.454618E6,1.970183E6,2.4727964E-1,-1.6498484E-2,1E0,-2.4340408E-1,1.8216437E-1,3.1981263E-2,-4.518557E-2,-2.1073954E-1,1.502E3,-2.650694E-1,9.1151334E-2,1.354584E6,7E4,1.489984E6,1.861752E6,-2.8467053E-1,2.3878242E-1,4.16224E5,-2.1321234E-1,-8.7529153E-4,2.3989771E-1,6.6749076E-3,1.7018546E-1,8.035588E6,1.3545766E-1,-2.0768142E-1,3.3305573E-1,7.579792E-2,3.8105305E-2,-2.2615623E-1,8.781541E-2,-1.491692E-1,-7.154069E-2,2.2067313E-1,-2.1545808E-1,1.2057187E-1,-1.6034712E-1,9.290691E-2],"split_indices":[5,16,15,9,5,16,0,5,3,7,8,6,7,7,4,0,0,6,7,1,19,3,0,7,2,7,13,0,6,0,2,3,0,0,0,4,0,0,0,3,0,0,5,3,4,4,7,4,0,0,0,0,0,6,3,0,7,0,0,0,0,0,0,0,0,7,0,0,0,0,0,13,6,6,8,0,0,3,4,0,0,19,0,0,0,0,0,1,0,0,0,0,2,5,0,0,0,0,0,0,0,0,7,0,0,0,0,0,0,0,0,0,0,0,0,0,0],"split_type":[0,0,0,0,0,0,0,0,0,0,0,0,0,0,0,0,0,0,0,0,0,0,0,0,0,0,0,0,0,0,0,0,0,0,0,0,0,0,0,0,0,0,0,0,0,0,0,0,0,0,0,0,0,0,0,0,0,0,0,0,0,0,0,0,0,0,0,0,0,0,0,0,0,0,0,0,0,0,0,0,0,0,0,0,0,0,0,0,0,0,0,0,0,0,0,0,0,0,0,0,0,0,0,0,0,0,0,0,0,0,0,0,0,0,0,0,0],"sum_hessian":[2.0593579E2,5.226174E1,1.5367406E2,1.4811274E1,3.745047E1,1.282369E2,2.5437159E1,4.493479E0,1.0317795E1,3.0357843E1,7.092624E0,3.2476887E1,9.576001E1,3.6626163E0,2.1774542E1,3.4399357E0,1.0535431E0,5.74742E0,4.570375E0,2.5763721E1,4.594123E0,4.978529E0,2.1140952E0,6.695688E0,2.5781199E1,7.309663E1,2.2663383E1,1.033213E0,2.629403E0,6.660694E0,1.5113848E1,3.7021239E0,2.045296E0,2.9326112E0,1.6377637E0,2.4630283E1,1.1334381E0,2.1233401E0,2.4707828E0,2.5990849E0,2.379444E0,2.8230078E0,3.8726802E0,3.8282194E0,2.195298E1,2.7495243E1,4.5601383E1,1.7333508E1,5.3298764E0,1.5358043E0,1.093599E0,5.568272E0,1.0924222E0,2.6645286E0,1.2449319E1,1.5035375E0,2.1985865E0,2.3448666E1,1.1816171E0,1.101604E0,1.021736E0,1.0783972E0,1.5206877E0,1.0298475E0,1.3495964E0,2.4545295E0,1.4181508E0,1.377022E0,2.4511974E0,1.5098163E0,2.0443163E1,1.9291508E1,8.203735E0,2.8361189E1,1.7240196E1,4.5918403E0,1.2741667E1,2.4675689E0,2.8623075E0,1.4000326E0,1.2644961E0,8.888034E0,3.5612857E0,1.034793E0,1.1637933E0,1.4277244E0,1.0268052E0,1.6422388E1,2.8691204E0,1.2029542E0,7.000781E0,2.1628176E1,6.733013E0,1.4490761E1,2.7494345E0,2.085298E0,2.5065422E0,1.4210322E0,1.0465368E0,1.1205541E0,1.7417535E0,2.4020495E0,6.485984E0,1.4967501E1,1.454887E0,5.8022833E0,1.1984981E0,2.872742E0,1.8755434E1,4.4868517E0,2.2461612E0,4.3878174E0,1.0102943E1,1.3072952E0,1.199247E0,5.388691E0,1.0972929E0],"tree_param":{"num_deleted":"0","num_feature":"21","num_nodes":"117","size_leaf_vector":"1"}},{"base_weights":[7.869127E-3,-6.561081E-1,1.7502928E-1,-7.1331966E-1,1.8669327E-1,-6.591651E-2,3.9652085E-1,-8.210895E-1,-3.7245554E-1,1.7818451E-1,-9.229592E-2,-4.6081692E-1,5.8982607E-2,5.409115E-1,-3.8683955E-2,-8.474049E-1,-2.886054E-2,-5.303149E-1,6.308513E-2,-5.901085E-1,7.273963E-2,6.830872E-1,-5.1238567E-2,5.933902E-1,-9.208055E-2,6.3338673E-1,-2.3693475E-1,-9.0895784E-1,-3.679215E-1,-6.381499E-1,2.0069022E-2,-1.984715E-1,-8.1582683E-1,1.4910485E-1,-1.290015E-1,2.9005894E-1,3.0184415E-1,-2.1761425E-1,3.114066E-1,8.7346935E-1,4.4162104E-1,-4.34106E-1,1.4588022E-1,2.4796428E-2,2.4757423E-1,-3.9049083E-1,2.7041978E-1,-2.789426E-1,-5.6680415E-2,-2.2552885E-1,1.2597765E-1,-1.9129981E-1,-2.537837E-1,-4.6677893E-1,1.6007741E-1,-2.6752493E-1,-3.9024003E-2,1.8909247E-1,-7.244303E-2,1.3507406E-1,-3.920719E-1,-3.419402E-2,7.096603E-1,3.6203E-1,9.438555E-1,-3.5825935E-1,6.033453E-1,5.2804463E-2,-2.1828467E-1,1.0320499E-1,-4.8443976E-1,2.1543589E-1,-1.1505103E-1,-1.9078803E-1,6.748559E-2,-9.7850814E-2,-2.2459112E-1,7.252876E-2,-1.018743E-1,-4.1327968E-1,3.3921766E-1,2.1186227E-1,-4.9135435E-1,4.4144577E-1,-4.925313E-1,2.8811708E-1,2.58166E-1,-9.894962E-2,2.1958616E-1,2.922285E-1,6.1691232E-2,-8.507972E-1,1.0974839E-1,7.0460725E-1,-2.1188495E-1,-5.7965964E-1,5.4233085E-2,7.279349E-2,-1.258064E-1,8.426007E-2,-2.4358332E-1,2.3098497E-1,-4.7031876E-2,-7.77207E-2,1.9622046E-1,-1.6286542E-1,7.7327505E-2,-6.9332235E-2,1.9825102E-1,3.3974208E-2,-2.2083889E-1,1.9726388E-1,-7.643046E-2,-1.8478043E-2,-3.706364E-1,-1.2079522E-1,1.9238853E-1,2.5835997E-1,8.5347734E-2,-5.7473548E-2,-2.016106E-1],"categories":[],"categories_nodes":[],"categories_segments":[],"categories_sizes":[],"default_left":[0,0,0,0,0,0,0,0,0,0,0,0,0,0,0,0,0,0,0,0,0,0,0,0,0,0,0,0,0,0,0,0,0,0,0,0,0,0,0,0,0,0,0,0,0,0,0,0,0,0,0,0,0,0,0,0,0,0,0,0,0,0,0,0,0,0,0,0,0,0,0,0,0,0,0,0,0,0,0,0,0,0,0,0,0,0,0,0,0,0,0,0,0,0,0,0,0,0,0,0,0,0,0,0,0,0,0,0,0,0,0,0,0,0,0,0,0,0,0,0,0],"id":9,"left_children":[1,3,5,7,9,11,13,15,17,-1,-1,19,21,23,25,27,-1,29,-1,31,33,35,37,39,41,43,45,47,49,51,-1,53,55,-1,-1,-1,57,59,61,63,65,67,-1,-1,-1,69,71,-1,-1,-1,-1,73,-1,75,-1,-1,-1,-1,77,79,81,83,85,87,89,91,93,-1,-1,-1,95,-1,-1,-1,-1,97,-1,-1,-1,99,101,103,105,107,109,-1,111,-1,-1,-1,-1,113,115,117,-1,119,-1,-1,-1,-1,-1,-1,-1,-1,-1,-1,-1,-1,-1,-1,-1,-1,-1,-1,-1,-1,-1,-1,-1,-1,-1],"loss_changes":[2.0521286E1,1.926321E0,7.906865E0,9.810734E-1,8.3941483E-1,3.55799E0,4.8647957E0,4.0853882E-1,1.0596465E0,0E0,0E0,1.2373452E0,3.8371036E0,1.9795513E0,2.8330264E0,3.9608765E-1,0E0,5.820942E-1,0E0,1.0798187E0,1.1525418E0,6.481137E-1,2.958166E0,1.894556E0,1.2735256E0,4.7007298E-1,1.3737216E0,3.1510162E-1,1.7257695E0,5.3627133E-1,0E0,1.5320563E0,3.926673E-1,0E0,0E0,0E0,6.884031E-1,2.109759E0,2.154543E0,3.0015755E-1,4.9784684E0,8.4945995E-1,0E0,0E0,0E0,1.0644437E0,1.5976899E0,0E0,0E0,0E0,0E0,8.375989E-1,0E0,4.923694E-1,0E0,0E0,0E0,0E0,3.6932266E-1,1.4618675E0,1.4604769E0,2.231904E0,6.073954E-1,1.2445363E0,2.6416016E-1,1.6652188E0,4.6420307E0,0E0,0E0,0E0,8.6032796E-1,0E0,0E0,0E0,0E0,4.942996E-1,0E0,0E0,0E0,1.2758573E0,2.1306944E0,1.0049542E0,1.0089178E0,9.348974E-1,8.8032687E-1,0E0,1.0181448E0,0E0,0E0,0E0,0E0,1.0060546E0,1.4881552E0,1.7905416E0,0E0,2.8097463E-1,0E0,0E0,0E0,0E0,0E0,0E0,0E0,0E0,0E0,0E0,0E0,0E0,0E0,0E0,0E0,0E0,0E0,0E0,0E0,0E0,0E0,0E0,0E0,0E0,0E0],"parents":[2147483647,0,0,1,1,2,2,3,3,4,4,5,5,6,6,7,7,8,8,11,11,12,12,13,13,14,14,15,15,17,17,19,19,20,20,21,21,22,22,23,23,24,24,25,25,26,26,27,27,28,28,29,29,31,31,32,32,36,36,37,37,38,38,39,39,40,40,41,41,45,45,46,46,51,51,53,53,58,58,59,59,60,60,61,61,62,62,63,63,64,64,65,65,66,66,70,70,75,75,79,79,80,80,81,81,82,82,83,83,84,84,86,86,91,91,92,92,93,93,95,95],"right_children":[2,4,6,8,10,12,14,16,18,-1,-1,20,22,24,26,28,-1,30,-1,32,34,36,38,40,42,44,46,48,50,52,-1,54,56,-1,-1,-1,58,60,62,64,66,68,-1,-1,-1,70,72,-1,-1,-1,-1,74,-1,76,-1,-1,-1,-1,78,80,82,84,86,88,90,92,94,-1,-1,-1,96,-1,-1,-1,-1,98,-1,-1,-1,100,102,104,106,108,110,-1,112,-1,-1,-1,-1,114,116,118,-1,120,-1,-1,-1,-1,-1,-1,-1,-1,-1,-1,-1,-1,-1,-1,-1,-1,-1,-1,-1,-1,-1,-1,-1,-1,-1],"split_conditions":[9.8256956E5,1E0,2.145033E6,5.700962E6,1.53388E5,4.4110356E5,1E0,1.6E1,7E0,1.7818451E-1,-9.229592E-2,5.938012E6,5.4E4,1E0,9.843669E5,6.87694E5,-2.886054E-2,2E0,6.308513E-2,5.13E4,1.5517938E6,1E0,4.06967E5,3.00184E5,1.764724E6,1E0,2.827367E6,1.503E3,6E0,1E0,2.0069022E-2,3.1064E4,1.7932966E6,1.4910485E-1,-1.290015E-1,2.9005894E-1,2E0,1.6E5,2.8719E5,3.98922E5,4.45494E5,1.108804E6,1.4588022E-1,2.4796428E-2,2.4757423E-1,1.20254E5,5.8657245E6,-2.789426E-1,-5.6680415E-2,-2.2552885E-1,1.2597765E-1,4E4,-2.537837E-1,3.888445E6,1.6007741E-1,-2.6752493E-1,-3.9024003E-2,1.8909247E-1,1.041E4,1.185453E6,2.565386E6,7.7856E4,7E0,5.21095E5,1E0,6E0,1.504E3,5.2804463E-2,-2.1828467E-1,1.0320499E-1,5.732785E6,2.1543589E-1,-1.1505103E-1,-1.9078803E-1,6.748559E-2,1.3014E4,-2.2459112E-1,7.252876E-2,-1.018743E-1,1.066636E6,4.91204E5,2.347433E6,8.097447E6,3E0,1E0,2.8811708E-1,5.36128E5,-9.894962E-2,2.1958616E-1,2.922285E-1,6.1691232E-2,2.233755E6,2.558355E6,9.067696E6,-2.1188495E-1,1E0,5.4233085E-2,7.279349E-2,-1.258064E-1,8.426007E-2,-2.4358332E-1,2.3098497E-1,-4.7031876E-2,-7.77207E-2,1.9622046E-1,-1.6286542E-1,7.7327505E-2,-6.9332235E-2,1.9825102E-1,3.3974208E-2,-2.2083889E-1,1.9726388E-1,-7.643046E-2,-1.8478043E-2,-3.706364E-1,-1.2079522E-1,1.9238853E-1,2.5835997E-1,8.5347734E-2,-5.7473548E-2,-2.016106E-1],"split_indices":[5,10,5,7,0,4,13,6,8,0,0,7,0,14,2,4,0,9,0,0,5,19,0,0,2,18,2,1,6,19,0,0,5,0,0,0,8,0,3,2,0,2,0,0,0,0,4,0,0,0,0,0,0,7,0,0,0,0,0,5,7,3,6,3,15,6,1,0,0,0,4,0,0,0,0,0,0,0,0,5,3,7,7,6,16,0,3,0,0,0,0,4,5,5,0,8,0,0,0,0,0,0,0,0,0,0,0,0,0,0,0,0,0,0,0,0,0,0,0,0,0],"split_type":[0,0,0,0,0,0,0,0,0,0,0,0,0,0,0,0,0,0,0,0,0,0,0,0,0,0,0,0,0,0,0,0,0,0,0,0,0,0,0,0,0,0,0,0,0,0,0,0,0,0,0,0,0,0,0,0,0,0,0,0,0,0,0,0,0,0,0,0,0,0,0,0,0,0,0,0,0,0,0,0,0,0,0,0,0,0,0,0,0,0,0,0,0,0,0,0,0,0,0,0,0,0,0,0,0,0,0,0,0,0,0,0,0,0,0,0,0,0,0,0,0],"sum_hessian":[1.8285754E2,3.6188416E1,1.4666913E2,3.4031876E1,2.1565397E0,7.0585884E1,7.608324E1,2.4786398E1,9.245479E0,1.0638928E0,1.0926468E0,1.6314362E1,5.4271526E1,5.6946762E1,1.9136477E1,2.3751759E1,1.0346403E0,7.3558273E0,1.8896512E0,1.3046852E1,3.2675087E0,7.3659477E0,4.690558E1,5.2644764E1,4.3019967E0,3.8591323E0,1.5277345E1,2.0255754E1,3.4960046E0,6.175292E0,1.1805352E0,5.457316E0,7.589536E0,1.7740937E0,1.4934149E0,3.2647278E0,4.1012197E0,3.2428047E1,1.4477532E1,1.6830343E1,3.5814423E1,2.8760324E0,1.4259641E0,1.4178562E0,2.441276E0,1.1904626E1,3.3727186E0,1.9080893E1,1.1748605E0,2.3641093E0,1.1318953E0,2.6429152E0,3.5323768E0,4.273352E0,1.1839639E0,6.449082E0,1.1404542E0,1.7887737E0,2.3124464E0,1.0806693E1,2.1621353E1,8.24058E0,6.2369537E0,2.7792528E0,1.405109E1,5.818945E0,2.9995478E1,1.0871588E0,1.7888736E0,1.0375994E0,1.0867026E1,1.930532E0,1.4421866E0,1.0126642E0,1.6302509E0,2.4744735E0,1.7988786E0,1.1113517E0,1.2010945E0,2.6538048E0,8.152888E0,2.8924809E0,1.8728872E1,4.062044E0,4.178535E0,3.2133934E0,3.02356E0,1.021937E0,1.7573158E0,1.296322E1,1.0878702E0,2.436659E0,3.382286E0,2.8288397E1,1.7070812E0,9.62545E0,1.2415761E0,1.3271984E0,1.1472752E0,1.092961E0,1.560844E0,4.0265584E0,4.12633E0,1.6124413E0,1.2800395E0,1.763171E1,1.0971625E0,1.016902E0,3.0451424E0,1.3888913E0,2.7896435E0,1.5273943E0,1.4961656E0,1.2093353E0,1.2273237E0,1.8513134E0,1.5309728E0,1.9401114E1,8.887282E0,2.599764E0,7.0256863E0],"tree_param":{"num_deleted":"0","num_feature":"21","num_nodes":"121","size_leaf_vector":"1"}},{"base_weights":[8.939853E-3,-5.045159E-1,1.774946E-1,-1.7055775E-1,-6.450239E-1,5.052886E-1,4.7181956E-2,-6.2551594E-1,3.405407E-2,-3.3485803E-1,-8.2621235E-1,7.278154E-1,-6.0930874E-2,1.7255294E-1,-4.6715665E-1,-2.2264598E-1,-3.313371E-2,3.721534E-1,-4.6626493E-1,1.3400682E-2,-6.099024E-1,-9.047948E-1,-1.5569584E-1,4.6836895E-1,2.866052E-1,1.5752853E-1,-2.4617767E-1,2.662544E-1,-3.2149345E-1,-2.9165044E-1,-7.880264E-2,-2.2512738E-2,2.3713042E-1,-2.1174002E-1,3.247221E-3,-5.8200985E-1,3.9695752E-1,-2.266859E-1,-1.3078302E-2,-2.844499E-1,-7.946239E-2,3.745818E-2,-1.0716835E-1,6.58374E-1,-3.61403E-2,-5.962349E-1,2.9679325E-1,6.810551E-2,5.9784126E-1,-6.6431534E-1,1.2604111E-1,-4.749953E-1,4.6703207E-1,-1.8425882E-1,4.0447012E-1,-2.3816271E-1,4.1754957E-2,2.1382418E-1,2.692688E-1,-1.5936759E-1,2.9006022E-1,-2.5633618E-1,-8.05591E-4,2.1116295E-1,-7.169833E-2,4.8778516E-1,-3.1760147E-1,2.482685E-1,7.625344E-1,-2.7440897E-1,-2.3583865E-1,3.0616686E-1,-3.240052E-1,-6.9981825E-1,7.620571E-3,2.3764646E-1,-4.9685292E-2,1.7431743E-1,1.570999E-2,1.8863654E-1,-9.114454E-2,-5.178358E-2,1.887814E-1,6.427329E-1,-5.2422935E-1,-1.4451332E-1,-1.0190575E0,-1.0848796E-1,4.7007203E-1,8.505531E-1,1.0591974E-2,-2.0956461E-1,1.6603126E-1,-1.7603955E-1,4.5677107E-2,-2.4808353E-1,-7.056978E-2,1.4978862E-1,-1.4711945E-1,-1.2363606E-1,1.0275721E-1,-2.7031321E-2,2.2238883E-1,-2.0267047E-1,-2.8346337E-2,-1.4717266E-1,4.017965E-2,-4.9791574E-2,-3.7035456E-1,2.4362323E-1,2.2229517E-2,2.9361156E-1,1.5030786E-1],"categories":[],"categories_nodes":[],"categories_segments":[],"categories_sizes":[],"default_left":[0,0,0,0,0,0,0,0,0,0,0,0,0,0,0,0,0,0,0,0,0,0,0,0,0,0,0,0,0,0,0,0,0,0,0,0,0,0,0,0,0,0,0,0,0,0,0,0,0,0,0,0,0,0,0,0,0,0,0,0,0,0,0,0,0,0,0,0,0,0,0,0,0,0,0,0,0,0,0,0,0,0,0,0,0,0,0,0,0,0,0,0,0,0,0,0,0,0,0,0,0,0,0,0,0,0,0,0,0,0,0,0,0],"id":10,"left_children":[1,3,5,7,9,11,13,15,17,19,21,23,25,27,29,-1,-1,31,33,35,37,39,41,43,-1,-1,45,47,49,-1,51,53,-1,-1,-1,55,-1,-1,-1,-1,-1,-1,-1,57,59,61,63,65,67,69,71,73,75,-1,77,-1,-1,79,-1,-1,81,-1,-1,-1,-1,83,85,87,89,-1,91,-1,93,95,97,-1,-1,-1,-1,-1,99,-1,-1,101,103,105,107,-1,109,111,-1,-1,-1,-1,-1,-1,-1,-1,-1,-1,-1,-1,-1,-1,-1,-1,-1,-1,-1,-1,-1,-1,-1],"loss_changes":[1.4321515E1,1.8092556E0,5.296111E0,1.275418E0,1.3210449E0,4.4951935E0,5.8981986E0,1.896143E-1,1.905892E0,1.1734226E0,7.6881886E-1,1.1272373E0,1.3261828E0,3.4773781E0,3.5276551E0,0E0,0E0,1.1446633E0,5.498988E-1,5.791619E0,5.647583E-1,2.7840614E-1,2.2116749E-1,1.3799443E0,0E0,0E0,1.8836063E0,4.0417194E0,1.9453404E0,0E0,2.67399E0,1.3883028E0,0E0,0E0,0E0,9.2732704E-1,0E0,0E0,0E0,0E0,0E0,0E0,0E0,9.554348E-1,9.445914E-1,9.2194057E-1,1.1106654E0,6.633303E0,1.141345E0,5.701995E-1,2.8269448E0,7.720113E-1,1.2557787E0,0E0,1.7556125E-1,0E0,0E0,7.065339E-1,0E0,0E0,6.87221E-1,0E0,0E0,0E0,0E0,3.4042735E0,2.4583185E0,1.3828971E0,9.4375706E-1,0E0,1.900708E0,0E0,7.1687436E-1,1.071496E-1,1.0629926E0,0E0,0E0,0E0,0E0,0E0,6.86954E-1,0E0,0E0,1.4464545E0,1.501205E-1,1.8804452E0,5.9200287E-1,0E0,9.0736854E-1,1.4972878E-1,0E0,0E0,0E0,0E0,0E0,0E0,0E0,0E0,0E0,0E0,0E0,0E0,0E0,0E0,0E0,0E0,0E0,0E0,0E0,0E0,0E0,0E0,0E0],"parents":[2147483647,0,0,1,1,2,2,3,3,4,4,5,5,6,6,7,7,8,8,9,9,10,10,11,11,12,12,13,13,14,14,17,17,18,18,19,19,20,20,21,21,22,22,23,23,26,26,27,27,28,28,30,30,31,31,35,35,43,43,44,44,45,45,46,46,47,47,48,48,49,49,50,50,51,51,52,52,54,54,57,57,60,60,65,65,66,66,67,67,68,68,70,70,72,72,73,73,74,74,80,80,83,83,84,84,85,85,86,86,88,88,89,89],"right_children":[2,4,6,8,10,12,14,16,18,20,22,24,26,28,30,-1,-1,32,34,36,38,40,42,44,-1,-1,46,48,50,-1,52,54,-1,-1,-1,56,-1,-1,-1,-1,-1,-1,-1,58,60,62,64,66,68,70,72,74,76,-1,78,-1,-1,80,-1,-1,82,-1,-1,-1,-1,84,86,88,90,-1,92,-1,94,96,98,-1,-1,-1,-1,-1,100,-1,-1,102,104,106,108,-1,110,112,-1,-1,-1,-1,-1,-1,-1,-1,-1,-1,-1,-1,-1,-1,-1,-1,-1,-1,-1,-1,-1,-1,-1],"split_conditions":[1.123199E6,1E0,1E0,1E0,1E0,1E0,2E0,7E0,1.07432E5,5.13E4,8.06773E5,2.637945E6,1.43737E5,1E0,2E0,-2.2264598E-1,-3.313371E-2,6E0,5.634762E6,4E4,7.176169E6,1.03627256E6,1.0016455E6,1.0274104E6,2.866052E-1,1.5752853E-1,6.1E5,5.700962E6,2.971304E6,-2.9165044E-1,6.37E5,3.0302E4,2.3713042E-1,-2.1174002E-1,3.247221E-3,4.955524E5,3.9695752E-1,-2.266859E-1,-1.3078302E-2,-2.844499E-1,-7.946239E-2,3.745818E-2,-1.0716835E-1,4.68057E5,5E0,1.784569E6,4.756361E6,4.045965E6,9.610911E5,6E0,1.023827E6,7.447383E6,1E0,-1.8425882E-1,3.923078E6,-2.3816271E-1,4.1754957E-2,3.265682E6,2.692688E-1,-1.5936759E-1,8.54796E5,-2.5633618E-1,-8.05591E-4,2.1116295E-1,-7.169833E-2,1.502E3,1.489984E6,3.55603E5,1.1190189E7,-2.7440897E-1,7.24755E5,3.0616686E-1,2.7E1,9.7610444E5,1.4E1,2.3764646E-1,-4.9685292E-2,1.7431743E-1,1.570999E-2,1.8863654E-1,5.136515E6,-5.178358E-2,1.887814E-1,2.5914111E5,4.68057E5,2.137716E6,3.85115E5,-1.0848796E-1,2.1E5,1.322025E6,1.0591974E-2,-2.0956461E-1,1.6603126E-1,-1.7603955E-1,4.5677107E-2,-2.4808353E-1,-7.056978E-2,1.4978862E-1,-1.4711945E-1,-1.2363606E-1,1.0275721E-1,-2.7031321E-2,2.2238883E-1,-2.0267047E-1,-2.8346337E-2,-1.4717266E-1,4.017965E-2,-4.9791574E-2,-3.7035456E-1,2.4362323E-1,2.2229517E-2,2.9361156E-1,1.5030786E-1],"split_indices":[5,16,16,9,19,15,8,6,3,0,4,5,0,12,9,0,0,6,7,0,7,5,5,2,0,0,0,7,5,0,0,3,0,0,0,4,0,0,0,0,0,0,0,2,6,4,4,7,4,6,3,7,13,0,7,0,0,7,0,0,4,0,0,0,0,1,2,3,5,0,4,0,6,4,6,0,0,0,0,0,7,0,0,4,2,5,0,0,0,2,0,0,0,0,0,0,0,0,0,0,0,0,0,0,0,0,0,0,0,0,0,0,0],"split_type":[0,0,0,0,0,0,0,0,0,0,0,0,0,0,0,0,0,0,0,0,0,0,0,0,0,0,0,0,0,0,0,0,0,0,0,0,0,0,0,0,0,0,0,0,0,0,0,0,0,0,0,0,0,0,0,0,0,0,0,0,0,0,0,0,0,0,0,0,0,0,0,0,0,0,0,0,0,0,0,0,0,0,0,0,0,0,0,0,0,0,0,0,0,0,0,0,0,0,0,0,0,0,0,0,0,0,0,0,0,0,0,0,0],"sum_hessian":[1.634451E2,3.990186E1,1.23543236E2,1.2472115E1,2.7429745E1,3.4324474E1,8.9218765E1,3.2309506E0,9.241164E0,1.1165059E1,1.6264685E1,2.443573E1,9.888744E0,7.226785E1,1.6950909E1,2.2232485E0,1.0077021E0,5.667452E0,3.5737123E0,5.346565E0,5.8184943E0,1.4245729E1,2.0189548E0,1.3147298E1,1.1288431E1,1.9097401E0,7.979004E0,6.113415E1,1.1133704E1,6.611778E0,1.0339131E1,3.4420357E0,2.2254162E0,2.0233288E0,1.5503836E0,4.077342E0,1.2692226E0,4.289818E0,1.5286767E0,1.2641385E1,1.6043451E0,1.0150678E0,1.0038869E0,9.32892E0,3.8183775E0,4.7916775E0,3.1873267E0,3.9021294E1,2.2112858E1,6.0301104E0,5.1035933E0,6.065956E0,4.2731757E0,1.2420957E0,2.19994E0,3.0345588E0,1.0427834E0,4.0293074E0,5.2996135E0,1.2487915E0,2.5695858E0,2.9827404E0,1.8089373E0,1.6166729E0,1.5706537E0,1.856091E1,2.0460386E1,7.88463E0,1.4228227E1,3.0221353E0,3.0079753E0,1.2625009E0,3.8410926E0,3.8311784E0,2.2347775E0,2.6243649E0,1.648811E0,1.001887E0,1.1980531E0,1.232701E0,2.7966063E0,1.310666E0,1.25892E0,1.641286E1,2.148047E0,1.7378231E1,3.082155E0,1.9187664E0,5.965864E0,1.2539338E1,1.6888893E0,1.9594407E0,1.0485345E0,2.2995372E0,1.5415555E0,2.3252046E0,1.5059738E0,1.122954E0,1.1118236E0,1.6300142E0,1.1665921E0,2.1219554E0,1.4290906E1,1.1305227E0,1.0175242E0,7.3562007E0,1.0022031E1,1.0264534E0,2.0557017E0,2.582507E0,3.383357E0,7.5607824E0,4.978555E0],"tree_param":{"num_deleted":"0","num_feature":"21","num_nodes":"113","size_leaf_vector":"1"}},{"base_weights":[3.7116318E-3,-3.3246177E-1,2.0168549E-1,-5.555721E-1,3.253297E-2,3.1353858E-1,-2.2258952E-1,-6.5648663E-1,-1.3797037E-1,6.63171E-1,-8.288532E-2,7.408441E-1,1.8066616E-1,-7.4012834E-1,-4.466943E-2,-7.598965E-1,-1.6198342E-1,3.016258E-1,-1.9968048E-1,2.4032266E-1,6.7957915E-2,-3.6385554E-1,3.7116122E-1,2.4046849E-1,2.4378242E-1,4.242721E-2,5.8917457E-1,-2.4472627E-1,-7.446403E-2,5.4945636E-1,-1.7858198E-1,-3.5370845E-1,-8.6153215E-1,-2.0506877E-1,2.1056443E-1,-3.1224784E-2,5.3373903E-1,2.6554868E-1,-5.546798E-1,2.4218094E-1,2.8714389E-2,1.5353087E-1,-6.191877E-2,4.46793E-1,-1.528307E-1,1.0617984E-1,8.146742E-1,3.720672E-2,2.0838173E-1,1.5018083E-2,-6.2266535E-1,-2.2811584E-1,2.4912256E-1,-2.6336777E-1,-6.64774E-2,1.8369679E-1,-1.1245483E-1,3.4251813E-2,2.0889369E-1,1.733488E-1,-8.030022E-2,3.2221008E-2,-7.747848E-1,-1.7831308E-1,3.2073486E-1,6.1807466E-1,-1.2815002E-1,-2.3413737E-1,2.2210889E-1,1.7477979E-1,-1.486455E-1,2.9468393E-1,2.7124852E-1,-3.5434175E-1,2.8658563E-1,-3.6444936E-2,-2.1939631E-1,2.8048947E-1,-1.442845E-1,-1.766887E-1,1.7303045E-1,-3.498579E-2,-8.670558E-1,1.934054E-1,-1.1086896E-1,7.748392E-1,-5.106025E-2,-1.1377948E-1,-9.26167E-1,1.6349815E-1,-2.7668625E-2,9.27748E-2,-6.465411E-1,-6.014448E-2,4.131543E-1,-8.091233E-2,-2.775843E-1,5.052917E-2,2.7260277E-1,-7.6403685E-2,1.6996567E-1,-4.9757197E-2,-3.4417623E-1,-2.3062469E-1,-4.2108886E-2,1.7380229E-1,-3.3274405E-2],"categories":[],"categories_nodes":[],"categories_segments":[],"categories_sizes":[],"default_left":[0,0,0,0,0,0,0,0,0,0,0,0,0,0,0,0,0,0,0,0,0,0,0,0,0,0,0,0,0,0,0,0,0,0,0,0,0,0,0,0,0,0,0,0,0,0,0,0,0,0,0,0,0,0,0,0,0,0,0,0,0,0,0,0,0,0,0,0,0,0,0,0,0,0,0,0,0,0,0,0,0,0,0,0,0,0,0,0,0,0,0,0,0,0,0,0,0,0,0,0,0,0,0,0,0,0,0],"id":11,"left_children":[1,3,5,7,9,11,13,15,17,19,21,23,25,27,29,31,33,35,-1,-1,-1,37,39,41,-1,43,45,-1,-1,47,49,51,53,-1,55,-1,57,59,61,-1,63,-1,-1,65,67,69,71,-1,-1,73,75,-1,77,-1,-1,-1,-1,-1,-1,-1,-1,79,81,-1,83,85,-1,87,-1,-1,-1,-1,89,91,93,-1,-1,-1,-1,-1,-1,-1,95,-1,-1,97,-1,99,101,-1,-1,-1,103,-1,105,-1,-1,-1,-1,-1,-1,-1,-1,-1,-1,-1,-1],"loss_changes":[9.923333E0,4.518693E0,4.522559E0,1.3572416E0,1.6498365E0,4.1055937E0,1.8233175E0,1.2782106E0,2.07685E0,3.860891E-2,2.6113179E0,5.1484585E-1,3.2661545E0,6.0813427E-3,1.3764244E0,6.197176E-1,1.3327309E0,5.342492E-1,0E0,0E0,0E0,1.6480806E0,1.1859066E0,5.899148E-1,0E0,3.5914295E0,1.5099487E0,0E0,0E0,1.2037736E-1,1.2015063E0,1.7417965E0,1.0027599E-1,0E0,1.2732705E0,0E0,1.610629E-1,7.728345E-1,1.3054249E0,0E0,1.2083613E0,0E0,0E0,2.4940822E0,2.4381232E0,2.0056589E0,6.923151E-1,0E0,0E0,1.1681046E0,1.5807724E-1,0E0,2.1443803E0,0E0,0E0,0E0,0E0,0E0,0E0,0E0,0E0,1.6187394E0,3.3685684E-1,0E0,1.2642725E0,1.7178502E0,0E0,2.3142247E0,0E0,0E0,0E0,0E0,4.4257846E-1,1.1683128E0,4.978196E-1,0E0,0E0,0E0,0E0,0E0,0E0,0E0,1.0671616E-3,0E0,0E0,7.9521513E-1,0E0,2.7117133E0,5.4817104E-1,0E0,0E0,0E0,1.4009273E-1,0E0,5.79603E-1,0E0,0E0,0E0,0E0,0E0,0E0,0E0,0E0,0E0,0E0,0E0,0E0],"parents":[2147483647,0,0,1,1,2,2,3,3,4,4,5,5,6,6,7,7,8,8,9,9,10,10,11,11,12,12,13,13,14,14,15,15,16,16,17,17,21,21,22,22,23,23,25,25,26,26,29,29,30,30,31,31,32,32,34,34,36,36,37,37,38,38,40,40,43,43,44,44,45,45,46,46,49,49,50,50,52,52,61,61,62,62,64,64,65,65,67,67,72,72,73,73,74,74,82,82,85,85,87,87,88,88,92,92,94,94],"right_children":[2,4,6,8,10,12,14,16,18,20,22,24,26,28,30,32,34,36,-1,-1,-1,38,40,42,-1,44,46,-1,-1,48,50,52,54,-1,56,-1,58,60,62,-1,64,-1,-1,66,68,70,72,-1,-1,74,76,-1,78,-1,-1,-1,-1,-1,-1,-1,-1,80,82,-1,84,86,-1,88,-1,-1,-1,-1,90,92,94,-1,-1,-1,-1,-1,-1,-1,96,-1,-1,98,-1,100,102,-1,-1,-1,104,-1,106,-1,-1,-1,-1,-1,-1,-1,-1,-1,-1,-1,-1],"split_conditions":[6.87694E5,7.736E5,1E0,1E1,8.63957E5,1E0,5.654246E6,6.976265E6,8.39929E5,5.1771806E5,1.660093E6,4E0,7.091094E6,1.260976E6,7.55228E5,2.2465208E5,4.88296E5,4.96771E5,-1.9968048E-1,2.4032266E-1,6.7957915E-2,1E0,4.998398E6,1.500957E6,2.4378242E-1,4.096735E6,3.18499E5,-2.4472627E-1,-7.446403E-2,3.60395E5,2.317819E6,3.126032E6,5.860152E6,-2.0506877E-1,2.93713E5,-3.1224784E-2,9.8256956E5,6.87209E5,1.5517938E6,2.4218094E-1,2.0542486E6,1.5353087E-1,-6.191877E-2,2E0,1.882045E6,1.563127E6,1E0,3.720672E-2,2.0838173E-1,1.278733E6,1.8514E6,-2.2811584E-1,9.9843E4,-2.6336777E-1,-6.64774E-2,1.8369679E-1,-1.1245483E-1,3.4251813E-2,2.0889369E-1,1.733488E-1,-8.030022E-2,2.5301642E5,2.85786E5,-1.7831308E-1,1E0,1.116884E6,-1.2815002E-1,1.489984E6,2.2210889E-1,1.7477979E-1,-1.486455E-1,2.9468393E-1,1.6E1,1.68018E5,6E0,-3.6444936E-2,-2.1939631E-1,2.8048947E-1,-1.442845E-1,-1.766887E-1,1.7303045E-1,-3.498579E-2,3.1064E4,1.934054E-1,-1.1086896E-1,4E0,-5.106025E-2,3.0727922E6,1.2644E6,1.6349815E-1,-2.7668625E-2,9.27748E-2,1.733488E6,-6.014448E-2,7.978314E6,-8.091233E-2,-2.775843E-1,5.052917E-2,2.7260277E-1,-7.6403685E-2,1.6996567E-1,-4.9757197E-2,-3.4417623E-1,-2.3062469E-1,-4.2108886E-2,1.7380229E-1,-3.3274405E-2],"split_indices":[4,3,15,6,3,16,7,7,2,2,3,6,7,4,2,2,2,2,0,0,0,16,7,4,0,7,3,0,0,3,3,7,7,0,3,0,5,2,5,0,5,0,0,8,2,2,13,0,0,2,2,0,0,0,0,0,0,0,0,0,0,4,2,0,14,2,0,2,0,0,0,0,6,3,6,0,0,0,0,0,0,0,0,0,0,6,0,4,0,0,0,0,4,0,5,0,0,0,0,0,0,0,0,0,0,0,0],"split_type":[0,0,0,0,0,0,0,0,0,0,0,0,0,0,0,0,0,0,0,0,0,0,0,0,0,0,0,0,0,0,0,0,0,0,0,0,0,0,0,0,0,0,0,0,0,0,0,0,0,0,0,0,0,0,0,0,0,0,0,0,0,0,0,0,0,0,0,0,0,0,0,0,0,0,0,0,0,0,0,0,0,0,0,0,0,0,0,0,0,0,0,0,0,0,0,0,0,0,0,0,0,0,0,0,0,0,0],"sum_hessian":[1.470955E2,5.426701E1,9.282849E1,3.33556E1,2.0911411E1,7.366811E1,1.9160376E1,2.6403166E1,6.952432E0,2.5008926E0,1.8410519E1,1.6388521E1,5.727959E1,4.0934234E0,1.5066953E1,2.1392836E1,5.0103307E0,4.059728E0,2.892704E0,1.2164949E0,1.2843977E0,1.1495552E1,6.914967E0,2.859047E0,1.3529474E1,4.362185E1,1.36577425E1,2.895444E0,1.1979795E0,2.2005851E0,1.2866368E1,5.1782107E0,1.6214624E1,1.7138593E0,3.296471E0,1.6726832E0,2.3870447E0,2.5833123E0,8.91224E0,2.4004793E0,4.5144877E0,1.672673E0,1.1863741E0,1.3785273E1,2.9836576E1,4.8151336E0,8.842608E0,1.0695626E0,1.1310226E0,9.633001E0,3.2333667E0,2.8994348E0,2.278776E0,1.5169151E1,1.0454739E0,1.9163156E0,1.3801556E0,1.1803212E0,1.2067236E0,1.5625306E0,1.0207816E0,2.663565E0,6.2486753E0,1.0932325E0,3.421255E0,1.1786421E1,1.998852E0,2.8049923E1,1.7866517E0,2.6978846E0,2.1172493E0,6.0199037E0,2.8227048E0,3.9524546E0,5.6805468E0,1.0067801E0,2.2265866E0,1.0231558E0,1.2556201E0,1.207378E0,1.456187E0,1.0506525E0,5.198023E0,2.3562384E0,1.0650167E0,9.852089E0,1.9343313E0,2.4886137E1,3.1637862E0,1.3051704E0,1.5175345E0,1.1816708E0,2.7707837E0,1.0428853E0,4.6376615E0,1.0629921E0,4.1350307E0,2.3296933E0,7.522396E0,2.1090475E1,3.7956626E0,1.1554742E0,2.0083122E0,1.7662249E0,1.0045588E0,3.3994007E0,1.2382607E0],"tree_param":{"num_deleted":"0","num_feature":"21","num_nodes":"107","size_leaf_vector":"1"}},{"base_weights":[3.3120555E-3,-4.9940017E-1,1.1331165E-1,-5.702684E-1,7.4484766E-2,3.9090362E-1,1.4981487E-2,-3.1927526E-1,-7.4677974E-1,5.8698636E-1,-1.5203837E-2,1.2789975E-1,-4.6009076E-1,-1.9390908E-1,-1.2135992E-1,-8.305857E-1,-2.464725E-1,3.3529186E-1,2.6840106E-1,-1.5698892E-1,1.6117115E-1,5.6038874E-1,4.3622274E-2,-2.6664305E-1,-1.1415461E-1,1.8940438E-1,-3.501308E-1,-2.6400825E-1,-4.6034884E-2,7.973435E-2,-1.7844239E-1,6.338557E-1,-2.8437864E-2,1.7777535E-1,-7.406184E-2,-1.3127367E-1,2.5670117E-1,-1.2649211E-1,2.8485104E-1,3.017006E-1,-5.718462E-1,-2.143771E-1,-2.6839105E-3,8.7605165E-3,2.569737E-1,1.6129437E-1,-2.3169729E-1,-4.2238408E-1,3.562864E-1,8.407542E-2,-1.4430621E-1,-2.0570572E-1,5.3255606E-1,4.893353E-1,-4.161355E-1,-9.8780595E-2,1.837676E-1,-2.1369766E-1,-9.425767E-3,1.2694472E-1,-1.4842929E-1,-2.1006028E-1,2.8882032E-2,-1.965779E-2,-1.9217606E-1,1.8302743E-1,-2.137411E-2,2.8058335E-1,-3.6212295E-1,1.9807407E-1,5.5403072E-2,1.7351404E-1,7.308269E-1,1.2417371E-1,-6.738819E-1,-8.332272E-2,1.13634095E-1,-7.174411E-2,2.4129556E-1,-2.0301145E-1,-1.6840835E-4,1.4749493E-1,-1.7371246E-1,2.4865264E-1,-1.4631789E-2,-2.8594768E-1,1.1827927E-2],"categories":[],"categories_nodes":[],"categories_segments":[],"categories_sizes":[],"default_left":[0,0,0,0,0,0,0,0,0,0,0,0,0,0,0,0,0,0,0,0,0,0,0,0,0,0,0,0,0,0,0,0,0,0,0,0,0,0,0,0,0,0,0,0,0,0,0,0,0,0,0,0,0,0,0,0,0,0,0,0,0,0,0,0,0,0,0,0,0,0,0,0,0,0,0,0,0,0,0,0,0,0,0,0,0,0,0],"id":12,"left_children":[1,3,5,7,-1,9,11,13,15,17,19,21,23,-1,25,27,29,31,-1,-1,33,35,37,-1,39,-1,41,-1,-1,-1,-1,43,45,-1,47,49,-1,51,53,55,57,-1,59,-1,-1,-1,61,63,65,-1,-1,67,69,71,73,-1,-1,-1,-1,-1,-1,-1,75,-1,-1,-1,-1,77,79,-1,-1,81,83,-1,85,-1,-1,-1,-1,-1,-1,-1,-1,-1,-1,-1,-1],"loss_changes":[7.540354E0,1.4459348E0,3.0472555E0,7.661829E-1,0E0,2.3355503E0,4.5454264E0,6.5750206E-1,3.2217932E-1,1.2796307E0,1.0374072E0,2.4670932E0,2.3741052E0,0E0,1.6527957E0,2.8354454E-1,7.535852E-1,1.3878034E0,0E0,0E0,9.29898E-1,2.4550772E0,2.4281738E0,0E0,2.1248312E0,0E0,9.0093297E-1,0E0,0E0,0E0,0E0,9.5752716E-1,8.995796E-1,0E0,1.1210308E0,7.6739925E-1,0E0,1.9303749E0,3.7033072E0,1.4262774E0,3.9881778E-1,0E0,1.204612E0,0E0,0E0,0E0,7.174858E-1,2.820071E-1,4.296956E-1,0E0,0E0,2.5247777E0,6.389046E-2,1.3498163E0,1.5857084E0,0E0,0E0,0E0,0E0,0E0,0E0,0E0,6.121765E-1,0E0,0E0,0E0,0E0,2.5176325E0,2.8657825E0,0E0,0E0,2.681902E0,9.427376E-1,0E0,1.0797937E0,0E0,0E0,0E0,0E0,0E0,0E0,0E0,0E0,0E0,0E0,0E0,0E0],"parents":[2147483647,0,0,1,1,2,2,3,3,5,5,6,6,7,7,8,8,9,9,10,10,11,11,12,12,14,14,15,15,16,16,17,17,20,20,21,21,22,22,24,24,26,26,31,31,32,32,34,34,35,35,37,37,38,38,39,39,40,40,42,42,46,46,47,47,48,48,51,51,52,52,53,53,54,54,62,62,67,67,68,68,71,71,72,72,74,74],"right_children":[2,4,6,8,-1,10,12,14,16,18,20,22,24,-1,26,28,30,32,-1,-1,34,36,38,-1,40,-1,42,-1,-1,-1,-1,44,46,-1,48,50,-1,52,54,56,58,-1,60,-1,-1,-1,62,64,66,-1,-1,68,70,72,74,-1,-1,-1,-1,-1,-1,-1,76,-1,-1,-1,-1,78,80,-1,-1,82,84,-1,86,-1,-1,-1,-1,-1,-1,-1,-1,-1,-1,-1,-1],"split_conditions":[9.8256956E5,1E0,1E0,1E0,7.4484766E-2,1E0,2E0,2.770588E6,7.05126E5,2.637945E6,5.392787E6,7E4,2E0,-1.9390908E-1,2.2465208E5,2E0,8.2531894E5,1.677707E6,2.6840106E-1,-1.5698892E-1,2.51894E5,3.803717E5,5.3135E5,-2.6664305E-1,1E0,1.8940438E-1,5.700962E6,-2.6400825E-1,-4.6034884E-2,7.973435E-2,-1.7844239E-1,4.3049638E5,3.656937E6,1.7777535E-1,6.1E5,4.44483E5,2.5670117E-1,3.612937E6,4.589484E6,9.53927E5,4E0,-2.143771E-1,7.74379E5,8.7605165E-3,2.569737E-1,1.6129437E-1,1.06034E5,7.755285E6,4.756361E6,8.407542E-2,-1.4430621E-1,3.485231E6,1.052227E6,5.219053E6,1.179828E6,-9.8780595E-2,1.837676E-1,-2.1369766E-1,-9.425767E-3,1.2694472E-1,-1.4842929E-1,-2.1006028E-1,5.938012E6,-1.965779E-2,-1.9217606E-1,1.8302743E-1,-2.137411E-2,6.87694E5,5.603835E6,1.9807407E-1,5.5403072E-2,4.803986E6,3E1,1.2417371E-1,7.271412E6,-8.332272E-2,1.13634095E-1,-7.174411E-2,2.4129556E-1,-2.0301145E-1,-1.6840835E-4,1.4749493E-1,-1.7371246E-1,2.4865264E-1,-1.4631789E-2,-2.8594768E-1,1.1827927E-2],"split_indices":[5,10,16,19,0,15,8,7,4,5,7,0,9,0,2,9,5,5,0,0,0,4,0,0,13,0,7,0,0,0,0,4,7,0,0,2,0,5,3,4,9,0,2,0,0,0,3,7,4,0,0,7,2,7,2,0,0,0,0,0,0,0,7,0,0,0,0,4,7,0,0,7,6,0,7,0,0,0,0,0,0,0,0,0,0,0,0],"split_type":[0,0,0,0,0,0,0,0,0,0,0,0,0,0,0,0,0,0,0,0,0,0,0,0,0,0,0,0,0,0,0,0,0,0,0,0,0,0,0,0,0,0,0,0,0,0,0,0,0,0,0,0,0,0,0,0,0,0,0,0,0,0,0,0,0,0,0,0,0,0,0,0,0,0,0,0,0,0,0,0,0,0,0,0,0,0,0],"sum_hessian":[1.3433487E2,2.348148E1,1.10853386E2,2.1675875E1,1.8056039E0,2.82177E1,8.263569E1,1.0109424E1,1.1566452E1,1.8729197E1,9.4885025E0,6.735669E1,1.5278998E1,2.8969471E0,7.2124763E0,9.341513E0,2.2249389E0,1.1613457E1,7.11574E0,1.9103829E0,7.5781198E0,1.0063619E1,5.7293068E1,6.021709E0,9.257289E0,1.2528708E0,5.9596057E0,8.2808E0,1.0607127E0,1.007894E0,1.2170447E0,5.9702125E0,5.6432443E0,2.1035242E0,5.4745955E0,3.26156E0,6.8020587E0,3.3877975E1,2.3415094E1,5.0288944E0,4.228395E0,2.350873E0,3.6087325E0,1.9774781E0,3.9927344E0,1.0385039E0,4.60474E0,3.0358758E0,2.4387197E0,1.5987927E0,1.6627673E0,3.0857021E1,3.0209532E0,1.8360964E1,5.0541296E0,1.6641003E0,3.3647938E0,3.0494144E0,1.1789808E0,2.0098522E0,1.5988803E0,1.018579E0,3.5861614E0,1.6818912E0,1.3539845E0,1.2401558E0,1.1985639E0,7.316566E0,2.3540455E1,1.4974629E0,1.5234902E0,8.700723E0,9.660242E0,1.0442709E0,4.009859E0,2.0236638E0,1.5624975E0,3.9726381E0,3.343928E0,1.1959856E1,1.1580599E1,6.339758E0,2.3609645E0,8.415755E0,1.2444865E0,2.5980406E0,1.4118183E0],"tree_param":{"num_deleted":"0","num_feature":"21","num_nodes":"87","size_leaf_vector":"1"}},{"base_weights":[3.2332635E-3,-1.7048293E-1,2.4791767E-1,5.3154223E-2,-3.5780805E-1,6.621626E-1,1.2162115E-1,-4.4262895E-1,1.3870507E-1,-5.989597E-1,-1.7691287E-1,2.612856E-1,1.4022516E-1,-2.1819732E-1,2.4409832E-1,-2.2548936E-1,3.777892E-2,6.8012494E-1,5.400726E-2,-2.1625748E-1,-7.46076E-1,-8.649802E-2,-2.2651893E-1,1.9319424E-1,-3.242721E-1,-7.391248E-1,1.1730171E-1,3.1044725E-1,-1.8730424E-1,-5.853719E-2,3.3539012E-1,-4.5665076E-1,1.8835273E-1,7.20129E-2,-4.4111165E-1,-2.6181406E-1,-3.228361E-1,3.3230863E-3,-2.0793833E-1,-1.6370451E-1,1.3962125E-2,1.442079E-2,-3.094114E-1,4.1935232E-1,-3.168585E-1,7.99879E-1,7.091189E-2,-1.9233209E-1,-9.039202E-3,2.7632597E-1,-1.46574E-1,-1.686218E-1,-5.6525413E-3,4.811016E-2,-1.9964114E-1,-1.9327272E-1,5.1029444E-1,6.249438E-1,-4.064684E-2,-1.5170294E-1,3.0317834E-2,2.790512E-1,2.4092268E-2,-2.5941604E-1,4.7127804E-1,